svm_type epsilon_svr
kernel_type rbf
gamma 0.00296038
nr_class 2
total_sv 1623
rho 1.38818
SV
-21.11212657236631 1:-0.041005497 2:-0.10417809 3:0.31092854 4:1.2552855 5:-0.45249993 6:0.74259305 7:1.0013213 8:0.95486135 9:0.087283245 10:0.22172998 11:0.53473696 12:0.15665463 13:-0.37494418 14:-1.2830499 15:-2.2543435 16:-0.87924616 17:0.92831524 18:0.31789512 19:-0.45214867 20:0.023346964 21:1.4602528 22:0.17989169 23:-0.87922865 24:0.19826747 25:0.40340992 26:0.77383656 27:1.0374209 28:-0.11248159 29:-0.63750493 30:-0.81209709 31:-0.35981888 32:0.20530891 33:0.36035503 34:-0.61659478 35:0.19069056 36:0.16868133 37:0.49177874 38:0.10455023 
21.11212657236631 1:0.3717677 2:0.18689275 3:0.082627539 4:1.507829 5:0.35135253 6:0.21929309 7:-0.0510868 8:0.1087441 9:0.5564057 10:0.67367901 11:0.80433586 12:0.60402168 13:0.16312487 14:-1.9442269 15:-0.83422652 16:-0.14149559 17:0.31893027 18:0.25079574 19:-1.644846 20:-0.32391699 21:0.84379471 22:1.4251956 23:0.0173798 24:-0.81543803 25:0.065632414 26:-0.6544246 27:-1.5367197 28:-0.11988003 29:0.38106211 30:-0.17685705 31:-1.5020067 32:0.38517382 33:1.1039051 34:0.12335802 35:0.26545751 36:-0.85617486 37:0.08689293 38:0.85183172 
20.05523745330891 1:0.91494706 2:0.34198888 3:-0.67471714 4:0.1894487 5:0.75215292 6:-1.1671621 7:0.74747958 8:1.0061729 9:0.56869224 10:0.22172998 11:0.41078344 12:-2.6953103 13:1.2504494 14:1.6207093 15:1.0684545 16:0.89542155 17:-0.17753027 18:0.72201636 19:0.49298794 20:1.3636956 21:-0.36248439 22:-2.7330699 23:0.89051683 24:0.18396114 25:-1.1286869 26:-1.2320623 27:-0.84541123 28:-0.068090974 29:-0.64288279 30:0.46026798 31:0.54838677 32:-0.3365771 33:0.11545998 34:0.52263457 35:0.82571112 36:0.16868133 37:0.0075641583 38:-1.3988621 
-4.027468416773234 1:-1.1327529 2:-0.5206006 3:0.78838497 4:-2.3133093 5:-0.52455393 6:-0.64000018 7:1.1876171 8:1.5852606 9:-0.35168133 10:0.67367901 11:-1.1283061 12:-1.3834996 13:-0.022570478 14:1.7561964 15:0.58687529 16:-1.563747 17:1.1144879 18:-0.49187234 19:-0.66089693 20:0.60602882 21:0.26031586 22:-0.90414982 23:2.0703472 24:0.5436631 25:1.654832 26:5.650453 27:1.0846322 28:0.18345585 29:-0.62244692 30:-0.7084229 31:-0.66920762 32:0.40579528 33:0.19967728 34:1.4522934 35:2.3120779 36:0.65066816 37:-1.1576416 38:-0.66337983 
-21.11212657236631 1:-2.8786865 2:-2.025883 3:-0.24775036 4:-1.2670575 5:-3.1939296 6:0.35253183 7:-0.11318541 8:-1.1593846 9:-0.21429547 10:0.22172998 11:1.4778166 12:0.85566565 13:-3.32929 14:-2.3756178 15:-0.8214238 16:-1.3904434 17:0.69229302 18:-0.49187234 19:-1.4245589 20:-1.0869957 21:-2.0735995 22:1.6888468 23:-0.26584207 24:-0.82156931 25:1.2018811 26:0.31194476 27:-0.79819992 28:0.43500268 29:1.4921284 30:-1.8648614 31:0.47963372 32:-0.17389673 33:-0.29232905 34:-1.4707685 35:-1.1371703 36:-0.55480625 37:0.76273285 38:1.5263516 
-21.11212657236631 1:0.39871112 2:0.50133423 3:0.79387297 4:1.2501315 5:-0.35792905 6:-1.9395606 7:0.31932598 8:-0.39913569 9:0.43577421 10:0.22172998 11:0.28373109 12:-1.4953414 13:0.085938249 14:1.0895999 15:-0.018791803 16:-0.73401967 17:0.23550863 18:-1.3016398 19:0.49298794 20:0.41390616 21:0.32373747 22:-0.35764955 23:-0.31591444 24:0.56921011 25:0.20403409 26:0.58274657 27:-0.41039271 28:0.67915107 29:0.64027505 30:-0.6188861 31:-0.48290903 32:0.48140728 33:-0.3244646 34:0.52263457 35:0.82571112 36:0.65066816 37:-0.028494374 38:-0.39396519 
21.11212657236631 1:0.73496501 2:0.78496895 3:-0.034815766 4:-0.78258622 5:0.41665147 6:0.37184179 7:0.17769756 8:-0.12058718 9:0.69155764 10:0.22172998 11:0.092636083 12:0.040152794 13:0.41593902 14:0.9595323 15:-0.12022873 16:0.19930257 17:-0.03306839 18:0.31789512 19:0.40906904 20:0.056720383 21:1.5071848 22:-0.58546465 23:-0.26584207 24:0.1757861 25:0.79538668 26:0.40585184 27:1.0554061 28:0.52378391 29:-0.63320264 30:0.11908564 31:-0.31878883 32:0.59024274 33:-0.096191392 34:0.40841367 35:0.15280865 36:0.16868133 37:-0.21393826 38:-0.093086063 
-19.23059757394711 1:0.64443512 2:0.17202051 3:1.1209581 4:-0.79701728 5:-0.077593949 6:0.10536432 7:0.33130992 8:0.094083653 9:0.27940006 10:0.67367901 11:0.31368652 12:0.74964898 13:-0.56175818 14:0.6668802 15:1.3363268 16:-1.2161716 17:0.94560998 18:0.31789512 19:0.40592208 20:-1.0022092 21:0.41886989 22:-1.1626816 23:1.1972101 24:0.15841413 25:0.95798445 26:0.69521668 27:0.44840355 28:0.5607761 29:-0.63535379 30:-0.82340701 31:-0.74239636 32:0.022007088 33:-0.86522832 34:0.40841367 35:-2.3145004 36:0.16868133 37:0.36402851 38:-0.92492835 
21.11212657236631 1:0.0409025 2:0.32499205 3:-1.010583 4:0.098739183 5:0.32545813 6:1.3798218 7:-0.50429773 8:-0.460919 9:-0.3818392 10:0.67367901 11:1.0760007 12:1.1609005 13:0.58261737 14:-2.1978587 15:-0.18916645 16:0.89058067 17:-0.0076349605 18:1.5317838 19:-3.8120516 20:1.4340504 21:2.6906321 22:1.8449897 23:0.0173798 24:0.44454068 25:-1.2448282 26:0.0040168976 27:-1.8346006 28:-0.65256743 29:-0.62567364 30:0.61106681 31:-0.46073062 32:0.64294201 33:-0.54941345 34:-0.65533056 35:-0.83810255 36:0.52991777 37:1.0851992 38:1.5991132 
18.60117212387121 1:0.67892269 2:0.56401007 3:0.36471099 4:-1.5649558 5:-0.13276029 6:0.16329421 7:0.76273187 8:0.53494425 9:0.71836464 10:1.125628 11:0.80020408 12:0.019182463 13:-0.047180705 14:-1.3404965 15:0.16044626 16:-0.12213206 17:0.48679091 18:1.5317838 19:-0.46683447 20:1.4214226 21:-0.40814795 22:1.0028417 23:1.1972101 24:0.18804867 25:1.4302923 26:0.56527549 27:-0.82517781 28:0.55337766 29:0.27565602 30:-0.22586667 31:0.66482339 32:0.54441728 33:0.68614301 34:-0.61659478 35:0.26545751 36:0.16868133 37:0.79570066 38:-0.34086887 
21.11212657236631 1:-0.51628743 2:-0.62789314 3:-0.80203885 4:-2.1700295 5:-0.83866435 6:-0.79254888 7:-0.23956154 8:-0.35515434 9:-0.69011967 10:1.125628 11:-2.5868258 12:-1.0002086 13:-0.50358855 14:-0.12111269 15:0.0028743373 16:0.34259271 17:-1.9304022 18:-1.3016398 19:0.40382411 20:1.0272555 21:0.89199513 22:-0.33717179 23:0.0173798 24:0.19111431 25:-0.26730587 26:0.89176638 27:-0.18782509 28:-0.83752833 29:-0.64503394 30:-0.12784743 31:0.27781024 32:-2.4204897 33:-0.23359857 34:1.0351388 35:1.7787404 36:0.16868133 37:-2.6906443 38:-0.66239657 
21.11212657236631 1:0.99254411 2:0.68405023 3:1.6950034 4:1.6634783 5:0.55062688 6:-1.0455094 7:0.31061039 8:0.19565961 9:1.055686 10:-1.1351657 11:0.059581812 12:-1.3578692 13:0.37790503 14:0.96278399 15:0.17029451 16:0.58850957 17:0.94255797 18:0.72201636 19:1.4465164 20:0.16405651 21:1.2839407 22:0.068543865 23:0.89051683 24:0.16352353 25:0.24952275 26:-0.011270301 27:-0.69366059 28:0.86781119 29:0.6424262 30:0.20862245 31:0.10814545 32:0.43214491 33:-0.67906376 34:-1.4707685 35:-1.6974239 36:0.16868133 37:0.22185487 38:-1.7489045 
5.94229892900277 1:0.11849955 2:0.02436049 3:-0.50897939 4:-1.9978876 5:0.081150025 6:-0.17463012 7:-0.35722207 8:0.47525529 9:-0.21876331 10:0.67367901 11:-1.9825524 12:-0.39789411 13:0.26044713 14:-0.15362959 15:0.39581933 16:0.56624151 17:-1.2182662 18:-0.49187234 19:-3.5980584 20:0.9000757 21:-0.34345791 22:0.18245141 23:1.7871253 24:0.5436631 25:0.26694394 26:-0.12374041 27:0.71818247 28:-0.064391756 29:-0.62244692 30:0.90418202 31:-0.46405738 32:-0.80972493 33:-0.6857125 34:-1.870045 35:-0.3895009 36:0.65066816 37:-2.1683107 38:-0.49819129 
-21.11212657236631 1:-0.3837258 2:-0.381439 3:0.74009053 4:0.48013146 5:-1.1561523 6:0.96079561 7:0.67230757 8:0.74437921 9:0.2916866 10:-0.23126765 11:-0.91551919 12:0.88013103 13:-0.83694526 14:0.80019949 15:1.3176151 16:-0.73401967 17:0.77469733 18:-0.49187234 19:0.98810944 20:-0.10473481 21:-0.046644752 22:-1.6311104 23:1.0188273 24:1.1802947 25:0.24661922 26:0.5783788 27:-0.20581036 28:0.54597922 29:-1.4205216 30:-0.95818346 31:0.26893888 32:0.17552236 33:0.51992465 34:1.0917526 35:0.26545751 36:1.4949061 37:-1.1926699 38:-1.1500961 
21.11212657236631 1:0.94727916 2:0.85933012 3:-0.26421437 4:-1.2134564 5:0.88950586 6:0.19805214 7:-0.029297813 8:0.074187332 9:0.95404282 10:0.22172998 11:-0.095360085 12:-0.33964319 13:0.44614248 14:-0.2511803 15:0.37513801 16:0.46942385 17:-0.069692528 18:0.31789512 19:0.69019735 20:0.56002762 21:0.71695148 22:-0.033844943 23:0.1973274 24:0.14104216 25:0.93378835 26:-0.018913901 27:0.69682498 28:0.77533074 29:1.4437276 30:0.63557162 31:1.6118413 32:0.7907291 33:0.88338879 34:0.30909114 35:-0.25791108 36:0.16868133 37:-0.26545045 38:0.20779306 
2.865020955734136 1:0.21010718 2:0.52470488 3:1.1758381 4:0.80276871 5:0.091282619 6:-0.33683379 7:1.2279267 8:1.2030418 9:0.73958684 10:0.67367901 11:1.4840143 12:-0.0099429961 13:0.024412682 14:-0.024645889 15:-0.35658662 16:-1.1174176 17:1.2569152 18:0.68846667 19:4.6008181 20:-1.6128526 21:-0.81658314 22:0.43714358 23:-0.26584207 24:-0.35559178 25:0.79345099 26:-0.1106371 27:1.0666469 28:0.48309252 29:0.85001167 30:-0.85545176 31:2.1319248 32:0.61200983 33:-1.0126086 34:0.82159536 35:0.45187641 36:-1.0063518 37:1.2819757 38:-0.47950925 
4.179485253692466 1:-4.8046022 2:-5.5006739 3:0.32629496 4:-2.1123052 5:-5.3532979 6:1.269755 7:0.26703241 8:-0.079747366 9:-2.2292881 10:-6.3331038 11:0.10296554 12:1.192356 13:-5.8037365 14:0.83813587 15:1.1236047 16:-2.5154646 17:1.2131697 18:0.31789512 19:-3.8089046 20:-0.30136738 21:-2.7725057 22:0.074943166 23:2.6837337 24:-5.8154995 25:1.6422501 26:3.132433 27:1.7646999 28:-1.6772508 29:-0.62567364 30:-2.7102773 31:-4.9939965 32:-0.85669602 33:-4.5087347 34:-0.10409055 35:-0.96869548 36:0.16868133 37:-0.91553428 38:2.0553482 
21.11212657236631 1:-0.68980306 2:-0.83504209 3:-0.73508519 4:-0.18885121 5:0.16784 6:0.12660528 7:0.97517449 8:1.060626 9:-1.1022773 10:1.125628 11:-0.22344539 12:-0.34779832 13:-0.18029966 14:1.1979896 15:1.1521646 16:-0.67302455 17:0.1500523 18:-1.3016398 19:0.3125623 20:1.2094563 21:0.63704025 22:-0.22326424 23:0.56035211 24:0.08381685 25:0.26791178 26:0.5630916 27:-0.49245047 28:-0.91151269 29:-0.63320264 30:-0.88466903 31:-0.25447146 32:-0.4625971 33:0.073351332 34:0.29419276 35:-0.071492177 36:0.047930951 37:-0.27575288 38:0.93737578 
21.11212657236631 1:-0.25008644 2:-0.0075085794 3:-0.13359985 4:-1.9484096 5:-0.14401873 6:0.010745512 7:0.15046133 8:0.29199969 9:-0.019944743 10:0.67367901 11:-0.28335625 12:0.22655573 13:-0.21609635 14:-0.046323823 15:-0.84308994 16:-0.94314582 17:-0.27519464 18:-0.49187234 19:0.20241875 20:-1.0202489 21:-2.3387019 22:0.018629321 23:-0.26584207 24:0.55490378 25:0.83700397 26:-0.27442851 27:0.62151169 28:0.19085429 29:2.1589832 30:-0.89126648 31:0.9121126 32:0.073560725 33:0.63073689 34:0.18096509 35:-0.071492177 36:0.65066816 37:-0.051159738 38:0.089801249 
21.11212657236631 1:0.61318075 2:0.34411349 3:1.4293839 4:0.85018505 5:-0.25772895 6:-1.8526658 7:1.2377318 8:0.79883231 9:0.76974471 10:0.67367901 11:0.13498687 12:-2.0533852 13:-0.55057171 14:1.1394592 15:0.56520915 16:-0.88699158 17:1.1643375 18:0.72201636 19:0.21185962 20:-0.75596747 21:-1.1438387 22:-0.38580647 23:-0.26584207 24:0.56614447 25:0.38114951 26:0.23660071 27:-0.55877112 28:0.49419017 29:1.2361421 30:-1.0967299 31:1.0540544 32:0.45734891 33:0.034567049 34:0.18096509 35:0.041156681 36:0.65066816 37:0.1002861 38:-1.5561846 
-21.11212657236631 1:-1.1532299 2:-1.3576948 3:-1.5066987 4:0.032768627 5:0.26241087 6:0.68466316 7:-0.78646512 8:-0.05670952 9:-2.0695631 10:0.22172998 11:-1.072527 12:0.18112002 13:0.19332833 14:-0.73784991 15:0.20968749 16:1.6418857 17:-0.97512262 18:1.93743 19:1.4538593 20:0.12436921 21:-1.1133963 22:1.5160656 23:0.89051683 24:0.19009243 25:-1.1315904 26:-1.581484 27:0.76202155 28:-1.0261885 29:-0.6385805 30:1.7656203 31:0.57056518 32:-1.0525998 33:0.72603541 34:1.6608707 35:0.76988514 36:0.16868133 37:0.037441228 38:1.3228157 
7.900406715807893 1:0.053835342 2:-0.02131851 3:-0.25104316 4:-1.3505515 5:-0.39395605 6:0.53597646 7:0.64507134 8:0.5496047 9:0.070528872 10:1.125628 11:0.24241325 12:0.31626215 13:-0.44989351 14:0.29943922 15:1.6770761 16:-1.1493674 17:0.034075864 18:-1.3016398 19:0.49508591 20:1.6063294 21:1.2306666 22:0.65343993 23:0.89051683 24:0.10323258 25:1.3770608 26:0.75745742 27:-0.5598952 28:-0.17906752 29:-0.62997593 30:-0.89597894 31:-0.29882827 32:0.11480364 33:-0.17819245 34:0.52263457 35:0.26545751 36:0.047930951 37:0.042592447 38:-0.29760521 
16.22297998718568 1:0.087245183 2:0.35367421 3:0.61825682 4:0.23583425 5:-0.20031092 6:0.265637 7:1.7083739 8:1.3873446 9:0.49273908 10:1.125628 11:-0.25546671 12:-0.089164245 13:-0.41521546 14:0.3395434 15:0.69520599 16:-1.4533749 17:1.1602681 18:-1.3016398 19:0.010454267 20:0.56904746 21:2.2010172 22:0.12485771 23:-0.57253536 24:0.098123178 25:0.13047795 26:2.00664 27:-0.36205732 28:0.57187375 29:-0.6310515 30:-1.5133116 31:0.028303192 32:0.40121273 33:0.17308235 34:-0.047476717 35:-0.12731816 36:0.047930951 37:-0.39732165 38:-0.43624559 
-21.11212657236631 1:0.32003634 2:0.38554328 3:0.70167449 4:-0.51148846 5:-0.07196473 6:0.77155799 7:0.01645906 8:0.20194266 9:0.19227732 10:-0.23126765 11:-0.52093383 12:0.74731894 13:-0.16240131 14:1.0180627 15:1.8129818 16:-0.65366101 17:0.090029409 18:0.31789512 19:0.018846157 20:-0.57466862 21:-0.35614223 22:-1.579916 23:2.0703472 24:1.1905135 25:0.38211736 26:-0.2995432 27:-0.047315235 28:0.36841676 29:-0.55576143 30:-0.39363036 31:1.101738 32:0.69335001 33:1.5526947 34:-0.047476717 35:0.15280865 36:1.4949061 37:-0.30459971 38:-0.83250143 
-18.22374737877071 1:-1.4399079 2:-1.1664804 3:-0.56056664 4:-0.83412571 5:-0.24759636 6:0.76190301 7:0.89673414 8:1.318231 9:-1.5579962 10:1.5775771 11:0.2413803 12:0.58771142 13:-0.42528328 14:0.87498836 15:2.0621424 16:-0.8986097 17:-0.31588813 18:0.31789512 19:0.30836636 20:0.99929397 21:0.2070417 22:1.6030961 23:1.1972101 24:0.18702679 25:-1.1315904 26:-0.82476768 27:-0.43287429 28:-1.6180633 29:-0.62890035 30:-0.67166569 31:-0.32100668 32:-0.5599762 33:1.6446689 34:0.1422293 35:-0.015666194 36:0.16868133 37:0.070409029 38:1.2038406 
15.25937089604619 1:0.36530128 2:0.45034372 3:0.33288056 4:-0.25894493 5:0.36035928 6:-1.4181916 7:-0.61542157 8:-1.7437082 9:-0.37737137 10:-2.0390638 11:1.719526 12:-1.0491394 13:0.75153302 14:1.3909232 15:-0.26696759 16:1.2313788 17:-0.18465163 18:0.31789512 19:0.014650212 20:0.1532327 21:-0.26227824 22:1.3714415 23:-0.87922865 24:-1.63703 25:-1.2574101 26:-0.12264847 27:-0.47109297 28:-0.30484093 29:-0.6385805 30:0.87590724 31:-0.37756161 32:-0.055896186 33:-0.82866029 34:-0.14183311 35:0.036172219 36:0.16868133 37:2.0392049 38:-0.033106891 
21.11212657236631 1:0.31141444 2:0.43653379 3:0.073846731 4:-1.6257724 5:0.49546054 6:-1.0416474 7:0.42500257 8:0.43022677 9:0.15653465 10:0.67367901 11:0.2434462 12:-0.96642307 13:0.56136309 14:0.57691677 15:0.51596792 16:0.038585257 17:0.23245661 18:-0.49187234 19:0.58844568 20:-0.99228735 21:-1.8351343 22:-0.028725503 23:-0.57253536 24:0.57840703 25:-1.2545066 26:-0.12592429 27:-0.51830428 28:0.27593631 29:-0.64180722 30:0.14359045 31:-0.20013437 32:0.59711655 33:-0.31005901 34:0.63586225 35:0.37710947 36:0.65066816 37:0.23936901 38:0.32381835 
-21.11212657236631 1:0.0021039751 2:-0.12967335 3:-0.36080326 4:0.97284905 5:0.48195041 6:-0.99144148 7:-0.011866623 8:-0.25148404 9:-0.26902642 10:0.22172998 11:-0.39078263 12:-0.34430327 13:0.20898938 14:0.61376926 15:0.16930968 16:0.53429168 17:-0.68212951 18:-1.705761 19:0.50557577 20:0.91270348 21:-1.3239561 22:-0.010807461 23:-0.57253536 24:0.57840703 25:-1.2506352 26:-0.4502313 27:-0.99716188 28:-0.14577455 29:-0.64180722 30:0.7269934 31:-0.28773907 32:-0.20024637 33:0.19635292 34:0.095547717 35:0.49873036 36:0.65066816 37:-0.98250012 38:0.98555577 
-17.11295339274285 1:0.92680216 2:0.35473651 3:2.3085623 4:0.032768627 5:0.52698416 6:-1.6576351 7:-0.077233585 8:0.17471611 9:0.47151687 10:0.22172998 11:-0.10672249 12:-1.7434903 13:0.83990611 14:1.2576039 15:1.6140473 16:1.1442429 17:0.70246639 18:0.31789512 19:-0.67348476 20:-0.93997227 21:0.49497583 22:-1.7770144 23:1.5617996 24:0.19520183 25:-1.1315904 26:-0.27224463 27:1.0407931 28:0.47569408 29:-0.63212707 30:1.0889106 31:-0.75459448 32:0.76896201 33:-0.72449678 34:-0.84503658 35:0.15280865 36:0.16868133 37:-0.46222701 38:-2.1943236 
21.11212657236631 1:-2.2956309 2:-2.6218346 3:-1.2026632 4:-1.0650227 5:-1.6256292 6:0.14205325 7:-0.24718768 8:0.35378301 9:-2.3231126 10:0.22172998 11:-0.87110252 12:-0.84176611 13:-1.1591155 14:-1.1378078 15:-1.3936069 16:-1.3933479 17:-0.71570164 18:0.14862169 19:-1.0710505 20:0.032366807 21:-1.605548 22:-0.10807683 23:-0.87922865 24:0.18907055 25:0.68214895 26:0.60349349 27:1.1408361 28:-1.0113916 29:0.65210635 30:-0.75837501 31:0.23012667 32:-1.033124 33:-0.35327578 34:-0.18950793 35:1.4986136 36:0.16868133 37:0.33621193 38:0.17141225 
21.11212657236631 1:0.44074286 2:0.26019161 3:1.2208398 4:1.3305332 5:-0.46263252 6:0.22315509 7:1.3673763 8:1.1873342 9:0.49273908 10:0.67367901 11:-0.26373028 12:0.5923715 13:-0.74633488 14:-0.0029679553 15:-0.35067767 16:-0.51521176 17:1.4380012 18:0.31789512 19:-0.9451722 20:-1.3774346 21:0.64972457 22:0.44098316 23:-0.26584207 24:-0.86040077 25:0.79345099 26:0.62205652 27:0.98346509 28:1.000983 29:0.63382162 30:-1.2051165 31:1.3878394 32:-0.23117855 33:-0.26130163 34:-1.1102277 35:-0.68856867 36:-1.1575435 37:0.20124999 38:-0.3684003 
21.11212657236631 1:0.94727916 2:0.94750121 3:1.1055917 4:0.9274943 5:0.31645138 6:1.0534834 7:1.0263786 8:1.0930884 9:1.0947796 10:0.22172998 11:1.9364447 12:0.84984056 13:-0.031519652 14:-0.70316522 15:-0.27878548 16:-0.68173814 17:1.0880372 18:1.93743 19:-0.76789352 20:0.73320861 21:0.078930043 22:1.1308278 23:-0.26584207 24:-0.40975145 25:1.2115595 26:0.057522094 27:0.030246207 28:0.91960025 29:1.1877414 30:-0.96289592 31:0.36430602 32:0.56045619 33:-0.82311967 34:-0.81126692 35:-1.2956762 36:-0.55480625 37:1.97636 38:-0.46672681 
2.769982967490955 1:-0.56694106 2:-0.57584032 3:-0.65166752 4:1.0501583 5:-0.34554477 6:0.13626026 7:-1.6046416 8:-1.8871711 9:-1.4328969 10:-2.0390638 11:-0.79156567 12:1.2261415 13:0.37343044 14:-0.52432226 15:-0.25711934 16:1.4811684 17:-1.603837 18:-1.3016398 19:-1.4319018 20:0.64481414 21:-0.37643714 22:2.8112841 23:-0.87922865 24:-1.7269555 25:-1.2554744 26:-0.56597724 27:-0.78583505 28:-1.5551766 29:1.2382933 30:1.6864509 31:1.4565924 32:-1.4444075 33:0.47559976 34:-1.7558241 35:-0.85604662 36:-2.3630179 37:-1.4852591 38:0.86264763 
-5.77634637974757 1:0.10017803 2:-0.16685393 3:-0.14896627 4:-0.11154197 5:0.11492534 6:-0.3812467 7:-0.68732522 8:-1.3698667 9:-0.32934217 10:-2.0390638 11:0.20212836 12:-0.25576187 13:-0.061723112 14:0.77526987 15:-0.083790222 16:0.48685102 17:-0.27621198 18:-1.3016398 19:-0.20248994 20:-1.1086433 21:-0.58826533 22:-0.29237669 23:-2.059059 24:0.20542064 25:-1.2574101 26:-0.2766124 27:-1.9447604 28:-0.37142685 29:-2.7671382 30:-0.34556323 31:-0.31989776 32:-0.26898455 33:1.2402042 34:0.86430405 35:1.7558119 36:0.16868133 37:0.29191144 38:0.40149629 
21.11212657236631 1:1.2910772 2:1.0760398 3:1.3712111 4:0.79761476 5:0.91540027 6:-1.2057821 7:0.33022047 8:0.35797171 9:1.1003643 10:-0.68321668 11:1.1224832 12:-0.66235328 13:1.6688233 14:0.51296687 15:-0.31423916 16:1.4763275 17:1.3037127 18:0.31789512 19:0.29577852 20:-1.1907239 21:0.37954849 22:0.20292918 23:-0.87922865 24:0.17680798 25:-1.258378 26:-0.0058105875 27:-0.0034761594 28:1.356108 29:-0.64073165 30:1.3405561 31:0.079313522 32:1.2272166 33:-0.36657325 34:-0.30372883 35:-0.27186758 36:0.99769867 37:0.95229771 38:-0.45394436 
21.11212657236631 1:0.098022552 2:0.11253158 3:-0.90960375 4:-0.1589583 5:0.36035928 6:1.0940343 7:-0.20252026 8:-0.25881426 9:-0.35838308 10:0.22172998 11:-1.1138448 12:0.61567186 13:0.36112533 14:-1.555108 15:-0.63332231 16:-0.69238808 17:0.22635259 18:1.5317838 19:-2.4578104 20:1.6974298 21:-0.27369413 22:1.3445644 23:0.0173798 24:-0.64580586 25:0.9347562 26:0.16125666 27:-2.0897665 28:-0.44541122 29:-0.64610951 30:-0.69899798 31:-0.74128744 32:0.060958725 33:-1.0303386 34:0.40841367 35:0.15280865 36:-0.19255511 37:-0.42925921 38:1.2913512 
21.11212657236631 1:1.8116241 2:1.2821264 3:0.082627539 4:0.93677141 5:1.8768709 6:0.031986469 7:-1.0947793 8:-0.31431453 9:2.1402524 10:-1.1351657 11:1.1359115 12:0.72168854 13:1.5513654 14:-1.3404965 15:1.4850353 16:2.8840563 17:0.13886159 18:-0.96461794 19:0.6786585 20:-0.94718814 21:-0.066939669 22:1.403438 23:0.32407309 24:1.2099292 25:-1.258378 26:-1.0125818 27:-0.41713718 28:1.6853384 29:-0.63965608 30:2.8410044 31:-0.001637654 32:1.7965978 33:0.38916621 34:1.0967188 35:0.12489566 36:1.4949061 37:0.75552115 38:0.64436278 
-21.11212657236631 1:0.27369365 2:0.28993607 3:0.45690947 4:0.69556656 5:0.11267365 6:0.29460194 7:0.64833969 8:0.62814281 9:0.21014865 10:1.125628 11:0.92622349 12:-0.15091022 13:-0.43087651 14:-0.31946579 15:-0.556506 16:-0.37579433 17:0.25382069 18:1.1276626 19:0.012552239 20:0.47163316 21:-0.051718481 22:-1.4314522 23:-1.6240552 24:0.0061539288 25:0.63182107 26:0.32941585 27:1.0745155 28:0.22044803 29:-0.62244692 30:-0.41625018 31:1.6373464 32:0.52952401 33:1.8042385 34:-0.047476717 35:-0.18314414 36:-0.45435005 37:0.90387625 38:-1.1766442 
21.11212657236631 1:0.03766929 2:0.03817042 3:-0.013961348 4:1.4016577 5:0.59678648 6:0.43749566 7:0.17333977 8:-0.27556906 9:-0.42540057 10:-0.68321668 11:0.69897537 12:0.69139806 13:0.6743464 14:-0.33355644 15:-1.028237 16:1.3814462 17:0.13987893 18:-1.705761 19:0.97971755 20:-1.2673926 21:-0.36755812 22:0.42178525 23:-1.7523657 24:-0.35048238 25:0.25242628 26:-0.27770434 27:0.32138263 28:-0.40471982 29:0.30254533 30:1.1548851 31:-0.50176067 32:-0.039857277 33:-0.0718127 34:1.2814586 35:0.59243826 36:-0.55480625 37:0.55153288 38:0.80266846 
-5.820602985710329 1:-3.3938447 2:-3.4366205 3:-2.3408754 4:-1.1557322 5:-1.8924541 6:0.27529198 7:-1.4510292 8:-0.83161888 9:-3.0536033 10:-0.23126765 11:-0.68104046 12:1.4439999 13:-2.1726094 14:0.47286269 15:-0.10939566 16:2.0156019 17:-1.6740333 18:0.72201636 19:2.1178676 20:-1.5713613 21:-2.7788479 22:0.013509881 23:0.32407309 24:1.2129949 25:-1.2564423 26:-1.0267771 27:1.310572 28:-4.1372308 29:-0.6310515 30:2.1727771 31:-0.22009494 32:-2.8867637 33:-0.90068824 34:3.7496234 35:3.2371942 36:1.4949061 37:-0.37980751 38:2.837044 
-21.11212657236631 1:0.59270375 2:0.50770805 3:0.75326174 4:-0.65889142 5:0.084527556 6:0.23281007 7:0.093809964 8:0.21869746 9:0.58321269 10:-0.23126765 11:0.51717688 12:0.21723558 13:0.56248173 14:-0.14495842 15:0.16734004 16:0.0066354292 17:0.89881247 18:0.31789512 19:0.97657059 20:-0.61345395 21:0.18040463 22:-1.039815 23:0.32407309 24:0.19315807 25:-0.29053412 26:-0.23184274 27:-0.54640625 28:0.73463934 29:-0.64073165 30:0.16715277 31:0.23567127 32:0.76781638 33:0.49222159 34:1.0917526 35:0.26545751 36:0.16868133 37:0.77097481 38:-0.49327497 
-21.11212657236631 1:0.20579623 2:0.27400154 3:-0.23018874 4:0.22964951 5:0.041745492 6:0.0049525237 7:-0.55005461 8:-0.59495738 9:0.2302539 10:-1.1351657 11:1.069803 12:0.97566254 13:0.017700802 14:-1.1920026 15:-0.89233117 16:-0.40871233 17:0.2731501 18:0.72201636 19:-0.41018922 20:0.27229463 21:0.16010971 22:0.83134049 23:0.32407309 24:-1.9568786 25:1.4351315 26:0.083728721 27:-1.2467074 28:-0.64146977 29:0.39289341 30:-0.47185725 31:0.20905719 32:0.12626 33:-0.093975147 34:-0.90165042 35:-2.3145004 36:-2.0616493 37:0.56080507 38:1.0671668 
21.11212657236631 1:0.87938174 2:0.70954549 3:-0.69118115 4:-0.54447374 5:0.66433711 6:0.51087351 7:-1.9979328 8:-1.6358491 9:0.062710165 10:0.22172998 11:0.85391727 12:0.42693889 13:0.44166789 14:-1.5941283 15:-0.7692281 16:1.034839 17:-1.5916289 18:1.1276626 19:0.019895143 20:1.0398833 21:0.91102162 22:1.0361181 23:0.0173798 24:-0.37705128 25:0.92314207 26:-1.6786669 27:-0.18557694 28:0.083576966 29:1.1920437 30:0.65442147 31:0.25452292 32:-0.69745256 33:-0.25354477 34:-2.3259354 35:-2.5388012 36:-0.604527 37:0.47117386 38:-0.56112026 
3.243555130030598 1:0.17023092 2:0.38979249 3:0.75765214 4:2.5468653 5:0.066514056 6:-1.9530776 7:0.017548509 8:0.31922624 9:0.11744112 10:-0.68321668 11:-0.13357909 12:-2.1244513 13:-0.028163712 14:0.41758396 15:-0.053260661 16:-0.94024129 17:0.2375433 18:-0.49187234 19:-0.65355402 20:-0.70004444 21:-0.73032975 22:0.045506383 23:-0.57253536 24:-0.024502488 25:1.3480255 26:0.11211923 27:-0.44748731 28:0.34992067 29:2.16221 30:-0.71125038 31:0.47630696 32:0.51921328 33:0.85014512 34:0.18096509 35:-0.1083772 36:-0.49392371 37:0.34445388 38:-0.78530471 
21.11212657236631 1:0.16915318 2:0.2591293 3:-0.25762877 4:-0.18885121 5:0.39976382 6:0.068675396 7:0.99151623 8:1.060626 9:0.01579792 10:1.125628 11:1.0718689 12:-0.38041884 13:0.24478608 14:1.4700476 15:1.2890552 16:-0.60234765 17:-0.15616619 18:-1.2345404 19:0.29892548 20:0.8658003 21:0.35291142 22:-0.48691542 23:0.89051683 24:0.090970014 25:0.26887962 26:-0.14011955 27:-0.48795415 28:-0.14577455 29:-0.62997593 30:-0.58589886 31:-0.90208087 32:-0.5599762 33:-0.86633645 34:0.29419276 35:-0.071492177 36:0.047930951 37:0.25276218 38:-0.092102798 
-6.897763448785821 1:-2.9649055 2:-3.4663649 3:-3.2738363 4:-0.44861028 5:-1.6999348 6:0.30232593 7:-4.0395609 8:-3.0107897 9:-5.439426 10:-1.1351657 11:-2.6735932 12:0.47120959 13:-2.0450837 14:-1.6851756 15:-0.89627047 16:0.43844219 17:-5.1014422 18:-1.3016398 19:-0.39760138 20:-1.299864 21:-0.1075295 22:0.37571029 23:-0.26584207 24:0.20542064 25:-0.71251405 26:-2.9835386 27:-0.28786811 28:-3.0644576 29:-0.6310515 30:0.77600302 31:1.6595248 32:-5.5813005 33:2.1023234 34:-0.70201215 35:-0.52009383 36:0.16868133 37:-2.7184609 38:1.909825 
21.11212657236631 1:-0.71782422 2:0.486462 3:0.58423119 4:-0.14143487 5:-1.3621817 6:1.0650694 7:0.58188328 8:0.50038748 9:0.788733 10:0.22172998 11:-0.54262569 12:0.67858286 13:-1.5584724 14:-1.0565155 15:-2.0997261 16:-1.4766111 17:0.53969244 18:0.31789512 19:-0.26752709 20:0.41571013 21:-0.26988883 22:-0.14135319 23:-0.87922865 24:0.18907055 25:0.81958278 26:1.1647521 27:0.81597734 28:0.69764716 29:1.0748063 30:-1.4727844 31:0.51068348 32:0.50317437 33:1.1947712 34:-0.37921395 35:-0.295793 36:0.16868133 37:-0.49519481 38:-0.47754272 
-21.11212657236631 1:0.62072491 2:0.45671754 3:-0.57154265 4:0.78627607 5:1.3128231 6:0.6170783 7:-0.76249723 8:-0.3027956 9:0.31402576 10:-1.1351657 11:0.28992877 12:0.39431838 13:0.76719407 14:-0.40726142 15:-0.35658662 16:1.4269505 17:0.28230614 18:1.1276626 19:0.49718388 20:-0.034380031 21:-0.77599331 22:0.37571029 23:0.32407309 24:0.15943601 25:-1.2535388 26:-0.82695156 27:-0.76560163 28:0.16495976 29:-0.63750493 30:1.613879 31:-0.33431372 32:0.80562238 33:0.24843467 34:-0.90661655 35:-1.3046483 36:0.16868133 37:0.3990568 38:1.3169161 
-21.11212657236631 1:0.87722627 2:0.51408186 3:0.68630808 4:0.77390659 5:0.26578841 6:0.49542554 7:0.7877892 8:0.8197758 9:0.87585574 10:-0.23126765 11:0.24241325 12:0.50965519 13:0.25709119 14:1.5665144 15:1.1521646 16:0.00082636957 17:1.0107196 18:0.72201636 19:0.48879199 20:-0.78483097 21:0.73597796 22:-2.0393857 23:1.5414577 24:0.17885174 25:0.11208892 26:-0.013454187 27:-0.2192993 28:0.89370572 29:0.21649954 30:-0.20795931 31:0.13032385 32:0.75979692 33:0.50219469 34:0.52263457 35:-0.295793 36:0.16868133 37:0.27542754 38:-0.53260557 
21.11212657236631 1:-0.14554597 2:-0.14454558 3:-0.43653773 4:2.1129027 5:0.95255312 6:0.1188813 7:0.53176861 8:0.75799249 9:0.044838833 10:-0.23126765 11:0.023428703 12:0.54577076 13:0.86451633 14:-1.3567549 15:-0.61559547 16:1.4985956 17:0.73909053 18:0.72201636 19:-0.67872969 20:-0.94267822 21:-0.48171702 22:2.3185379 23:-0.26584207 24:1.1659883 25:-1.2535388 26:-0.55833364 27:-0.46772073 28:-0.49350105 29:1.2286131 30:1.5252847 31:0.0039069471 32:1.1160898 33:-0.3687895 34:-4.6034009 35:-3.5476565 36:0.83128638 37:0.73594652 38:1.6010797 
-21.11212657236631 1:-1.0368343 2:-0.75536941 3:-0.65386272 4:-1.2433493 5:-0.89833407 6:0.59969933 7:-0.65464174 8:-0.4860512 9:-0.90569261 10:-0.23126765 11:0.64836102 12:1.1189598 13:-1.109895 14:1.2901208 15:1.475187 16:-0.55974788 17:-1.2070755 18:-0.49187234 19:-0.63886822 20:-1.4622212 21:-0.73159818 22:-1.7859734 23:1.7871253 24:0.19315807 25:0.52535825 26:-0.64241323 27:1.6511679 28:-1.1075712 29:-0.63535379 30:-0.6066337 31:-1.1471522 32:-0.45114074 33:-1.2253681 34:-0.21831146 35:0.15280865 36:0.83128638 37:-0.36744458 38:1.1251794 
21.11212657236631 1:-0.88164021 2:-1.2886452 3:-0.97985021 4:-0.25688335 5:-0.13613783 6:1.4435446 7:-0.040192307 8:0.020781416 9:-1.2184409 10:0.22172998 11:0.24964387 12:1.0502237 13:-0.37718147 14:-0.19698546 15:0.40468275 16:-0.24509049 17:-0.039172413 18:1.1276626 19:0.40487309 20:1.0092158 21:-0.92566832 22:-0.10039767 23:-0.26584207 24:-0.39340136 25:0.52051903 26:0.26935899 27:-0.07204497 28:-1.1149697 29:-0.6385805 30:-0.17308708 31:-0.18350057 32:-0.23346983 33:0.25619152 34:2.5488141 35:2.1765005 36:-0.55480625 37:1.198526 38:1.2864349 
21.11212657236631 1:-0.11860255 2:0.35686112 3:-0.26640957 4:-0.37233182 5:-0.03030851 6:1.1847912 7:-0.18944687 8:0.099319528 9:-0.47566369 10:-0.23126765 11:-0.056108138 12:0.95702224 13:0.18997239 14:1.0354051 15:1.6061687 16:-0.19958619 17:-0.20601571 18:0.31789512 19:0.021993115 20:-0.58729641 21:-0.23437273 22:-1.6042333 23:1.7871253 24:1.1915354 25:0.10821754 26:-0.74505585 27:-0.13611747 28:-0.0015050489 29:0.39504455 30:-0.37195303 31:0.49737644 32:0.14229891 33:0.72825166 34:-0.047476717 35:0.15280865 36:1.4949061 37:0.034350497 38:0.33168447 
21.11212657236631 1:0.34913523 2:0.50452114 3:0.83777701 4:-0.52901189 5:-0.39958527 6:0.23860306 7:0.68864931 8:0.73076594 9:0.82000783 10:-0.23126765 11:-0.28852098 12:0.14616946 13:-0.78660616 14:1.6304644 15:1.7529075 16:-1.2355352 17:1.0208929 18:-0.49187234 19:0.0094052804 20:-0.86510757 21:0.35671671 22:-2.0841808 23:1.95299 24:1.2007323 25:1.4786844 26:0.83280147 27:0.30789369 28:0.9306979 29:0.64350177 30:-1.2965383 31:-0.059301505 32:0.59826219 33:0.75817096 34:-0.047476717 35:0.15280865 36:1.4949061 37:-0.35096068 38:-0.84528388 
-21.11212657236631 1:-0.023761708 2:-0.22315595 3:-0.39153609 4:-0.56405875 5:0.064262368 6:-0.92192562 7:0.093809964 8:0.2417353 9:-0.38519008 10:-0.23126765 11:-1.2460619 12:-1.8215466 13:-0.4353511 14:0.5996786 15:-0.52302197 16:0.26707494 17:-0.81540068 18:0.92483947 19:0.012552239 20:1.8083739 21:-0.38277931 22:-0.84783597 23:0.89051683 24:0.18396114 25:0.40244208 26:-0.17396978 27:-1.0027823 28:-0.33813389 29:0.27995831 30:0.18223265 31:0.62933795 32:-1.3390089 33:0.70608921 34:2.0601472 35:0.26545751 36:0.16868133 37:-1.0051655 38:-0.29268888 
21.11212657236631 1:0.38685602 2:0.45565523 3:0.30983094 4:0.15749421 5:0.36824019 6:-0.056839353 7:0.4609544 8:0.46164201 9:0.58879748 10:-0.68321668 11:1.1627681 12:0.23354584 13:0.64861753 14:-0.28586499 15:-0.15568241 16:-0.029187105 17:0.56003919 18:0.31789512 19:0.13318566 20:-0.5016079 21:-0.50074351 22:0.65727951 23:0.0173798 24:-0.17471893 25:-1.2535388 26:-0.11718875 27:-1.8379729 28:0.098373839 29:-0.6385805 30:0.10023579 31:0.27448348 32:0.70136946 33:1.528316 34:-0.047476717 35:-0.85604662 36:-1.1575435 37:0.8132148 38:0.60798197 
-21.11212657236631 1:0.44289833 2:0.46096674 3:0.53483914 4:0.52651701 5:0.16784 6:-0.60138026 7:1.0655988 8:0.73076594 9:0.20568082 10:0.22172998 11:0.44280477 12:0.16364474 13:0.26492172 14:0.067485329 15:-0.53385504 16:-0.037900695 17:1.030049 18:-0.49187234 19:0.011503253 20:0.19562596 21:0.025655887 22:0.2822805 23:-0.57253536 24:0.20644252 25:-0.83639806 26:0.30102534 27:0.26068237 28:0.1316668 29:1.3996292 30:-0.046793063 31:0.18576986 32:0.54556292 33:0.087756923 34:-0.047476717 35:0.26545751 36:0.28943172 37:0.49692996 38:0.36314895 
-10.4095641960537 1:-1.2362156 2:-1.4522397 3:-1.1686376 4:-1.2258259 5:-0.016798385 6:1.0747244 7:0.20602325 8:0.60615214 9:-1.7612826 10:1.125628 11:0.097800813 12:0.71702846 13:-0.11541815 14:-1.9799955 15:-0.070002679 16:-0.40968051 17:-0.1592182 18:1.1276626 19:-0.75110974 20:1.6640564 21:-0.89522595 22:1.3266464 23:1.0188273 24:0.19213619 25:0.54471512 26:0.48010395 27:-0.756609 28:-1.1926533 29:0.27995831 30:-0.75743252 31:0.34323653 32:-0.90710402 33:2.0458092 34:-0.95826426 35:-0.071492177 36:0.16868133 37:0.31045583 38:1.8075654 
0.02110648131713522 1:0.70047743 2:0.70954549 3:0.28458612 4:1.7078023 5:1.3803738 6:0.27142999 7:0.35636726 8:-0.39180546 9:0.71277985 10:-0.68321668 11:1.2784581 12:0.35703779 13:1.4775347 14:0.047975189 15:-0.88248292 16:0.91768961 17:0.54376179 18:-0.49187234 19:0.0052093354 20:-0.97514965 21:0.83745255 22:0.067264005 23:-1.7523657 24:0.19826747 25:-1.2545066 26:-0.038568871 27:-0.17321207 28:0.47569408 29:0.38751554 30:1.1991822 31:-0.69471279 32:1.0943227 33:-0.28900469 34:-0.047476717 35:0.26545751 36:0.16868133 37:1.481843 38:0.62764727 
21.11212657236631 1:-0.35354917 2:-0.82229446 3:0.9288779 4:1.0625278 5:-1.389202 6:1.3778908 7:1.0252892 8:0.89098369 9:-0.52816073 10:0.89912922 11:0.0017368371 12:1.1119697 13:-1.2743361 14:-1.9160456 15:-0.55059705 16:-1.3923798 17:0.51731102 18:0.31789512 19:-1.0311891 20:1.1454154 21:0.92116908 22:0.21060834 23:-1.7523657 24:-1.0566018 25:1.3770608 26:2.5526114 27:-0.20918259 28:-0.44541122 29:-0.62352249 30:-1.4303723 31:0.47408912 32:-0.68943311 33:-0.55938655 34:-0.56196739 35:-0.6845811 36:-0.604527 37:-0.47252945 38:-1.1097822 
21.11212657236631 1:-4.0803631 2:-4.2365341 3:1.2735246 4:-1.3031351 5:-4.1621552 6:0.93955465 7:-0.011866623 8:-0.11849283 9:-1.9623351 10:1.5775771 11:-1.0776917 12:0.53994567 13:-4.7387849 14:-0.068001757 15:1.2723132 16:-1.1135449 17:-0.028999041 18:0.72201636 19:0.032482978 20:0.88564395 21:-2.2220061 22:0.29251938 23:2.3770404 24:0.17169858 25:1.3789965 26:0.8284337 27:0.66647485 28:-1.0446845 29:-0.63427822 30:-2.0297976 31:0.35876142 32:-0.87846311 33:0.78254966 34:0.67857093 35:-0.80022063 36:0.16868133 37:-0.90214111 38:0.27268856 
21.11212657236631 1:0.24351702 2:0.4386584 3:-0.00079013589 4:-0.13937329 5:0.203867 6:0.48577056 7:0.025174655 8:-0.0022564297 9:0.086166287 10:0.22172998 11:0.40561872 12:0.43742406 13:0.28505736 14:0.29076805 15:0.22150538 16:-0.019505339 17:-0.038155076 18:1.1276626 19:0.77306726 20:0.7737979 21:0.11825144 22:-0.30645515 23:-0.14692018 24:-0.37194187 25:0.35985695 26:0.30976088 27:0.26630277 28:0.061381658 29:-0.64180722 30:-0.16837461 31:-0.62152405 32:0.31185309 33:-0.70898307 34:-0.16169762 35:0.82571112 36:-0.55480625 37:0.5072324 38:-0.3261199 
21.11212657236631 1:-0.44731228 2:-0.69694279 3:-0.66703393 4:-0.55787401 5:0.27929853 6:-0.039460387 7:0.85751396 8:1.2564477 9:-0.88000257 10:1.5775771 11:0.34777374 12:-0.39672909 13:0.28058277 14:0.58775574 15:0.81830905 16:0.63788657 17:0.25789004 18:1.1276626 19:0.0073073079 20:0.52575222 21:-0.55655453 22:1.3560831 23:2.3770404 24:0.55592566 25:-1.1306226 26:-0.74505585 27:0.44615539 28:-0.57488385 29:-0.6310515 30:0.586562 31:2.0731521 32:-0.084537096 33:1.1105539 34:0.066744186 35:0.041156681 36:0.65066816 37:1.2850665 38:0.59028319 
21.11212657236631 1:-0.34061633 2:-0.48979383 3:-0.47166096 4:-0.42696369 5:0.18810518 6:0.64990523 7:-0.75596053 8:-1.4358388 9:0.21461648 10:-1.1351657 11:1.6079678 12:0.88479111 13:-0.36935095 14:-1.1226332 15:-1.4300454 16:0.079248674 17:0.26195939 18:0.047972632 19:-0.64621112 20:-1.7436403 21:-0.060597507 22:0.79038497 23:-1.7523657 24:0.21359568 25:0.11112108 26:0.42550681 27:-1.2051165 28:-1.2037509 29:-0.6310515 30:-0.38609042 31:-0.33764048 32:-0.069643823 33:-0.75330796 34:-0.84503658 35:0.15280865 36:0.16868133 37:1.0120519 38:1.3631296 
21.11212657236631 1:-0.59927317 2:-0.018131603 3:0.81472739 4:-0.67229169 5:-1.6166224 6:0.50894251 7:0.75946352 8:0.8239645 9:0.15430074 10:-0.23126765 11:-0.63559083 12:0.56790611 13:-1.7329812 14:0.032800635 15:1.0792876 16:-1.2626441 17:1.0402223 18:-1.3687392 19:-0.46683447 20:-1.0166409 21:0.063708856 22:-0.58034521 23:1.7871253 24:-0.089902842 25:0.65214579 26:0.65263091 27:0.22246369 28:1.034276 29:1.0608239 30:-1.4303723 31:2.3304216 32:-0.16816855 33:0.91219997 34:-0.23718274 35:-0.071492177 36:0.47004994 37:-0.16860753 38:-0.46082722 
-2.315506852936249 1:0.3308137 2:0.17945663 3:-1.2981545 4:-0.75784726 5:0.53711676 6:1.3315469 7:-0.86381602 8:-0.52793819 9:-0.12828969 10:0.22172998 11:0.61117496 12:0.86848085 13:1.1072627 14:-0.96438432 15:-0.28075513 16:1.5257045 17:-0.69535489 18:1.5317838 19:-2.792437 20:1.4475802 21:0.61040317 22:0.86717657 23:-0.26584207 24:0.032722823 25:-0.56830531 26:-0.86298568 27:-1.6536239 28:-0.56748541 29:-0.64395837 30:1.3377286 31:-2.7672847 32:0.21791091 33:-2.555115 34:-4.6034009 35:-4.7808126 36:0.16868133 37:0.053925129 38:1.6797409 
9.20549870622782 1:-3.0866897 2:-3.0775623 3:1.0254668 4:-0.89803469 5:-3.8716875 6:0.94727864 7:0.45550715 8:-0.21588009 9:-1.1447217 10:-2.9429618 11:-0.31124579 12:1.3531285 13:-3.6827824 14:-0.52215447 15:1.2516319 16:-2.117544 17:1.4654693 18:0.31789512 19:-3.8068067 20:-0.38705589 21:-0.32950515 22:-0.2181448 23:1.7871253 24:-5.8144777 25:1.6790281 26:2.2577868 27:-0.33732758 28:-0.40841903 29:-0.64180722 30:-2.8139515 31:-4.1733955 32:-1.1763286 33:-4.0721345 34:-0.5033671 35:0.37710947 36:0.16868133 37:-1.0927362 38:0.73973949 
21.11212657236631 1:-1.2620813 2:-1.3736294 3:-1.4090122 4:-0.41974816 5:-0.64501922 6:1.0476904 7:-0.63067386 8:-0.24729534 9:-1.5524114 10:0.22172998 11:-2.6694615 12:0.93954697 13:-0.60426675 14:-1.1497307 15:-0.1753789 16:-0.80663292 17:-1.3240693 18:1.93743 19:-0.37767064 20:0.33002163 21:-2.3323597 22:1.7093245 23:1.0704644 24:0.18498302 25:0.95895229 26:-0.44477159 27:0.75302892 28:-1.5810712 29:-0.63212707 30:-0.28241623 31:-0.0071822551 32:-1.8476715 33:0.14870365 34:0.57924841 35:0.15280865 36:0.16868133 37:-2.6576765 38:1.0779827 
-21.11212657236631 1:-0.5152097 2:-0.46536088 3:-1.5176747 4:-1.5804176 5:0.39188291 6:0.62480228 7:-0.60670597 8:-0.98031771 9:-1.1592421 10:1.125628 11:-0.50440669 12:0.31626215 13:0.38573556 14:-1.345916 15:-0.26992206 16:0.72986335 17:-1.0076774 18:0.31789512 19:0.3964812 20:0.34535536 21:0.37828006 22:0.24772428 23:0.0173798 24:0.17987362 25:-0.41828951 26:0.080452893 27:0.37533842 28:-1.0372861 29:-0.6310515 30:0.58938948 31:0.32771165 32:-0.61954929 33:0.59084448 34:0.40841367 35:0.15280865 36:0.16868133 37:-0.12018607 38:1.3473973 
21.11212657236631 1:1.0615193 2:1.2183883 3:0.2593413 4:0.00081413845 5:1.1844769 6:-0.070356325 7:1.2823992 8:1.37792 9:0.88367445 10:1.5775771 11:0.92828938 12:-0.59711225 13:1.3432971 14:1.1524659 15:1.7913157 16:1.4085552 17:1.0921065 18:1.1276626 19:0.10486303 20:0.5672435 21:1.2674511 22:1.0220396 23:2.0703472 24:0.5487725 25:-1.1306226 26:-0.40327776 27:-0.24402904 28:0.90480337 29:-0.6385805 30:1.1963547 31:0.060461878 32:1.2329447 33:-0.31005901 34:0.066744186 35:0.041156681 36:0.65066816 37:0.8719387 38:0.012123305 
21.11212657236631 1:0.46014212 2:0.52258028 3:-0.16652788 4:-0.58673613 5:0.76566305 6:0.018469497 7:-0.90521509 8:-0.9017796 9:0.29727139 10:0.22172998 11:-2.0693199 12:0.72285355 13:0.94170295 14:-0.35198269 15:-1.0686148 16:1.7735577 17:-0.91509972 18:0.31789512 19:1.4412715 20:-1.1582525 21:-1.3201508 22:0.433304 23:-0.26584207 24:0.18907055 25:-1.2516031 26:-0.79528522 27:-0.67005493 28:0.23894412 29:-0.63642936 30:1.4385754 31:-0.77455504 32:-0.59434529 33:0.22627222 34:1.6608707 35:1.3859647 36:0.16868133 37:-2.3073936 38:-0.055721988 
-4.180885762918063 1:2.1220123 2:1.6815521 3:-0.27299518 4:0.29252769 5:2.6165502 6:0.6653532 7:-1.1198366 8:-0.8766474 9:1.6934692 10:0.22172998 11:1.3094464 12:0.84751052 13:1.2638732 14:-1.009908 15:-0.16848513 16:1.2972148 17:-0.24060517 18:1.7681566 19:0.48879199 20:0.07926999 21:1.5642642 22:0.9593265 23:0.0173798 24:0.19213619 25:-0.21697799 26:-0.35850811 27:1.0138152 28:1.7149321 29:-0.62782478 30:1.3961632 31:0.7202694 32:0.74261237 33:0.33708446 34:-0.56891997 35:0.26545751 36:-3.8089783 37:1.0810782 38:-0.25139175 
-21.11212657236631 1:0.16053129 2:0.043481932 3:0.38995581 4:0.23583425 5:0.203867 6:-1.1980581 7:0.82265158 8:0.62290694 9:-0.29583342 10:0.22172998 11:0.87147735 12:-0.43400968 13:0.69336339 14:-0.06041448 15:-0.50726477 16:0.61368216 17:0.7848707 18:0.31789512 19:-0.090248412 20:-0.22469872 21:0.10176182 22:0.36163183 23:-0.87922865 24:0.20950816 25:-1.245796 26:-0.062591612 27:0.77775866 28:0.14646367 29:-0.63750493 30:0.46686543 31:0.45967315 32:0.12396873 33:-0.46408802 34:-0.31266785 35:0.19467813 36:0.16868133 37:0.96260015 38:0.42017833 
-21.11212657236631 1:-1.4711622 2:-1.9653318 3:-0.53093141 4:0.85430821 5:-0.29150427 6:0.3660488 7:-0.077233585 8:-0.61380652 9:-1.8953176 10:-0.68321668 11:-0.13977676 12:0.69489311 13:-1.018166 14:-0.1525457 15:-0.8775588 16:-0.67883361 17:-0.42372587 18:-1.5715623 19:0.86747602 20:-0.0993229 21:-1.2516554 22:0.37954987 23:-1.7523657 24:-0.8062411 25:1.07219 26:-0.17615366 27:-0.34969245 28:-1.5921688 29:0.38859112 30:-0.69145804 31:-0.59601889 32:-1.7434186 33:0.28500271 34:-0.61659478 35:-1.4172971 36:-2.4837683 37:1.1274392 38:1.1369786 
-21.11212657236631 1:0.37931186 2:0.35792342 3:-0.76033001 4:0.25748083 5:0.17346922 6:-0.45076256 7:-1.4717288 8:-1.676689 9:-0.0043073281 10:-1.1351657 11:0.60394434 12:-0.34430327 13:-0.18589289 14:0.075072606 15:-0.69536626 16:-1.2916894 17:-1.0483709 18:-1.3016398 19:0.39333424 20:-1.4793589 21:-0.48805919 22:-0.092718508 23:0.0173798 24:0.17272046 25:0.595043 26:-0.68936677 27:0.7698901 28:-0.17166908 29:0.64780406 30:-0.40022781 31:0.12588817 32:-0.43281056 33:0.074459455 34:0.40841367 35:-0.81916159 36:0.16868133 37:0.46293191 38:-1.4293434 
-21.11212657236631 1:0.93650179 2:0.95599963 3:-1.1236359 4:0.065753905 5:0.94242052 6:-0.64772417 7:1.0416309 8:1.4009578 9:0.87138791 10:0.22172998 11:0.014132189 12:-1.5198068 13:1.6017045 14:1.5383331 15:1.8307087 16:1.1849064 17:0.3881092 18:0.31789512 19:0.023042101 20:1.0597269 21:-0.13416658 22:-2.0227476 23:0.89051683 24:0.19826747 25:-1.1315904 26:-1.7692982 27:-1.3175244 28:0.64585811 29:-0.63427822 30:1.3019139 31:-0.21565926 32:0.68303928 33:0.47892412 34:-0.047476717 35:0.041156681 36:0.16868133 37:-0.12636753 38:-0.22484359 
21.11212657236631 1:-1.0519226 2:-1.0220073 3:-1.0007046 4:-1.4350763 5:-0.46375837 6:1.1075513 7:-0.30601795 8:0.15167827 9:-1.0520141 10:0.67367901 11:1.2918864 12:0.91974166 13:-0.41074087 14:-0.85274296 15:0.36036564 16:-0.36901709 17:-0.67399081 18:0.31789512 19:0.5108207 20:0.50681055 21:-0.81658314 22:0.68927602 23:1.7871253 24:0.55183814 25:0.54084375 26:0.16453249 27:1.1644418 28:-1.0446845 29:-0.61706906 30:-0.28901367 31:-0.53281044 32:-0.47863601 33:-0.68349625 34:-0.32260011 35:0.56452527 36:0.65066816 37:0.82866846 38:1.8173981 
21.11212657236631 1:0.50540707 2:0.49814733 3:-0.10835503 4:0.89450902 5:0.27817269 6:-0.730757 7:0.3683512 8:0.26163162 9:0.22578606 10:0.22172998 11:1.0088592 12:-1.8599922 13:0.69783798 14:-0.61970517 15:-1.3246691 16:0.076344145 17:-0.20092902 18:-1.1659161 19:0.3052194 20:0.78011179 21:4.2901252 22:-0.57266605 23:-1.7523657 24:0.1808955 25:-0.44635699 26:0.23550877 27:-0.32833495 28:0.083576966 29:-0.62890035 30:0.27271195 31:0.92541964 32:-0.074226369 33:0.62187191 34:0.23757893 35:0.20863463 36:0.16868133 37:1.4323913 38:-0.50605741 
-21.11212657236631 1:0.18855244 2:0.077475606 3:0.70386969 4:0.39560669 5:-0.93436107 6:-0.28662789 7:0.77253691 8:0.71715267 9:0.39779763 10:0.22172998 11:0.52750634 12:-1.0176839 13:-0.75080946 14:-0.77903798 15:-2.0495 16:-0.88408705 17:0.63633947 18:0.31789512 19:-0.27591898 20:-0.3347408 21:0.46580189 22:-0.4843557 23:-1.4456724 24:0.18191738 25:0.82151847 26:0.68211337 27:1.3308055 28:0.10207306 29:-0.63535379 30:-0.96006844 31:0.85888443 32:0.13657073 33:0.71606231 34:-0.3891462 35:-0.295793 36:0.16868133 37:0.61334751 38:-1.420494 
-21.11212657236631 1:0.058146289 2:0.19432886 3:0.19458284 4:-1.647419 5:-0.63939 6:-0.45655555 7:0.58733052 8:0.4166135 9:0.26934743 10:1.125628 11:-0.19348995 12:-1.1924366 13:-0.55728359 14:0.62135654 15:0.044236968 16:-1.3459073 17:0.25483803 18:0.72201636 19:-0.93887828 20:1.4647179 21:1.3651204 22:-0.43572102 23:1.1972101 24:0.18396114 25:1.6538642 26:1.6921604 27:-0.20243812 28:0.25004178 29:0.27780716 30:-1.0675126 31:-0.22120386 32:0.37486309 33:0.65733183 34:-1.1867061 35:-0.295793 36:0.16868133 37:-0.1562446 38:-0.60241739 
-21.11212657236631 1:-0.9516931 2:-0.31451395 3:-2.1883089 4:-1.7772985 5:-1.5355617 6:-0.32524781 7:-2.5873249 8:-3.9511527 9:-1.0129206 10:-0.68321668 11:-0.2327419 12:-0.18819081 13:-0.96111504 14:0.25933504 15:-0.68650284 16:-0.65366101 17:-2.759532 18:0.31789512 19:0.0073073079 20:0.38233671 21:-0.58192317 22:-2.2390439 23:1.1972101 24:1.2037979 25:1.5164304 26:-1.3172339 27:-0.050687472 28:-1.4922899 29:-0.63427822 30:-0.25508394 31:-0.039340941 32:-1.7239428 33:0.72825166 34:-0.047476717 35:0.26545751 36:1.4949061 37:-0.47871091 38:-0.44509498 
-21.11212657236631 1:0.33512465 2:0.5756954 3:0.73679772 4:1.5284448 5:0.42340654 6:-0.39283268 7:1.0198419 8:0.9737105 9:0.5161952 10:0.67367901 11:0.28889582 12:-0.14741516 13:0.3365151 14:-0.26743875 15:-0.44128153 16:-0.75725591 17:1.0127542 18:0.31789512 19:0.7321568 20:-1.3323354 21:-0.074550262 22:0.41666581 23:-0.26584207 24:0.19315807 25:0.79732237 26:0.14596946 27:0.56755591 28:0.67545186 29:1.2232353 30:-0.71502035 31:0.64153607 32:0.40121273 33:-0.74444298 34:-0.076280248 35:0.19467813 36:-1.0367931 37:0.71534164 38:-0.002625672 
21.11212657236631 1:0.27369365 2:0.36217263 3:0.370199 4:-0.076495107 5:-0.016798385 6:-2.1712801 7:0.041516395 8:-0.47453227 9:0.025850544 10:0.22172998 11:-0.19039112 12:-1.787761 13:0.43271872 14:0.65712513 15:0.133856 16:-0.46099387 17:-0.16227021 18:-1.3016398 19:-0.07975855 20:-0.078577262 21:-0.66056597 22:-0.023606062 23:-0.57253536 24:0.5804508 25:-0.1598752 26:0.13723392 27:0.063968573 28:0.33512379 29:0.31545219 30:-0.27016382 31:0.27670132 32:0.353096 33:0.23181283 34:-0.16169762 35:0.26545751 36:0.65066816 37:-0.22630118 38:-0.53948843 
-21.11212657236631 1:0.16807544 2:0.258067 3:-0.65825312 4:0.39766827 5:1.3049422 6:0.78121297 7:-1.0697219 8:-0.72061835 9:-0.25450597 10:0.22172998 11:0.66075637 12:0.78459953 13:1.0882457 14:-0.11352542 15:-0.064093731 16:0.45393302 17:-1.0280242 18:0.72201636 19:-0.36927875 20:-0.48356821 21:0.20577327 22:1.2101791 23:0.89051683 24:0.19315807 25:-1.1315904 26:-1.1960282 27:2.1671201 28:-0.2789464 29:-0.6385805 30:0.50079517 31:-0.4540771 32:-0.13723637 33:-0.034136539 34:-0.5033671 35:0.37710947 36:0.16868133 37:-0.025403643 38:0.29628692 
-21.11212657236631 1:0.44397607 2:0.46734056 3:0.87180264 4:-0.55375085 5:-0.041566948 6:-0.1823541 7:0.13738794 8:0.27629207 9:0.47151687 10:-0.23126765 11:-0.16146863 12:-0.31750784 13:0.30966758 14:0.731914 15:-0.07689645 16:-0.091150408 17:0.79707875 18:-0.35614861 19:0.97761958 20:-0.16967768 21:0.41760146 22:-1.8819629 23:0.32407309 24:0.17885174 25:-0.29053412 26:-0.0047186447 27:-0.14848233 28:0.45349877 29:-0.63535379 30:-0.24188904 31:-0.25225362 32:0.69105874 33:0.17751484 34:1.0917526 35:0.26545751 36:0.16868133 37:-0.12739778 38:-0.97409161 
21.11212657236631 1:-0.064715707 2:-0.35594374 3:-0.59349467 4:-0.30636126 5:0.13519053 6:0.89514174 7:0.22127554 8:0.13178195 9:-0.40194445 10:0.22172998 11:0.1535799 12:-0.023923216 13:0.39244744 14:-0.34656321 15:-0.14977347 16:-0.029187105 17:0.5630912 18:0.31789512 19:-0.16997137 20:0.29574622 21:0.16137814 22:-0.13879347 23:-0.26584207 24:0.17885174 25:0.26500825 26:0.14924529 27:0.68783235 28:-0.43801278 29:-0.63212707 30:-0.020403269 31:0.73912105 32:0.14917273 33:0.48335661 34:-0.2749253 35:-0.295793 36:0.16868133 37:0.68340408 38:1.0593007 
-21.11212657236631 1:0.31572539 2:0.19645347 3:0.10238436 4:0.25232688 5:-0.042692792 6:-1.6595661 7:0.28991085 8:-0.3069843 9:0.22243519 10:0.22172998 11:0.074043056 12:-1.468546 13:0.00092110173 14:0.81970963 15:0.29241275 16:-0.87827799 17:0.17955508 18:-1.3016398 19:-0.077660578 20:0.11174143 21:-1.0195323 22:-0.27061906 23:-0.52089823 24:0.58351644 25:0.2485549 26:0.61768874 27:0.20897475 28:0.25004178 29:0.31007433 30:-0.64904587 31:-0.14801512 32:0.39892146 33:0.32489511 34:-0.16169762 35:0.26545751 36:0.65066816 37:0.11677 38:0.16551266 
21.11212657236631 1:1.1337276 2:1.3023102 3:1.2976718 4:0.77081422 5:1.1484499 6:-0.035598395 7:0.11124115 8:0.33074516 9:1.3472121 10:-0.68321668 11:0.47689199 12:0.36868797 13:1.2593986 14:0.5357287 15:-0.32310258 16:1.2672014 17:1.0147889 18:-0.49187234 19:0.48984098 20:-1.29806 21:0.65860359 22:0.072383446 23:-0.57253536 24:0.1441078 25:-1.2535388 26:0.035683238 27:0.99582996 28:1.271026 29:0.0035362049 30:1.2472493 31:1.5198009 32:1.44947 33:-0.58487336 34:-0.066347996 35:-1.4362381 36:0.16868133 37:0.34651436 38:-0.034090156 
-21.11212657236631 1:0.19178565 2:0.4875243 3:0.31531895 4:1.4140271 5:-0.46038084 6:0.89127975 7:0.82700938 8:0.75275661 9:0.21796736 10:1.125628 11:0.86424673 12:0.47936472 13:-0.64565668 14:-1.460809 15:-0.61953477 16:-1.00995 17:0.56512587 18:0.72201636 19:0.010454267 20:1.22479 21:-0.25593608 22:-0.30773501 23:-1.4456724 24:-0.29121331 25:0.40534561 26:0.66791811 27:-0.52617283 28:0.24634256 29:-0.62352249 30:-0.93744862 31:0.79013138 32:0.28779473 33:-0.67352315 34:-0.047476717 35:-0.295793 36:-0.43405587 37:0.80600309 38:-0.58275209 
-19.40172165770593 1:-0.46994475 2:-0.51422679 3:-0.33994884 4:0.89863218 5:-0.38382346 6:0.51087351 7:0.10361501 8:-0.49338142 9:-0.68341792 10:-0.68321668 11:0.79090757 12:0.81139495 13:-0.19819801 14:-1.0348376 15:-0.79286389 16:-0.32641732 17:0.20295384 18:-2.1114073 19:0.12479377 20:0.0035033095 21:-0.25086235 22:1.2152985 23:-1.7523657 24:-0.95032626 25:0.11112108 26:0.37090967 27:-1.0173953 28:-1.2185478 29:0.36815524 30:-0.61134616 31:1.4388497 32:-0.43624747 33:1.9726731 34:-0.61659478 35:-0.295793 36:-2.4837683 37:0.35372607 38:1.2923345 
17.22741429549709 1:0.88908137 2:0.84339558 3:0.32300215 4:0.54300965 5:0.65082698 6:0.068675396 7:-0.84311648 8:-1.7175288 9:0.65358106 10:-2.0390638 11:0.17630471 12:0.9162466 13:0.40698984 14:-0.52432226 15:-0.27583101 16:0.19058898 17:0.05340527 18:-1.705761 19:-0.65145605 20:-0.052419717 21:0.55332372 22:0.46914008 23:-0.87922865 24:0.21461756 25:0.79345099 26:0.68648114 27:-0.12038036 28:0.80492449 29:0.40149798 30:0.085155908 31:0.45634639 32:0.53754346 33:-0.086218291 34:-0.84503658 35:-0.295793 36:0.16868133 37:0.023017815 38:-0.41559702 
21.11212657236631 1:0.57114901 2:0.42059926 3:-1.0018022 4:-0.30636126 5:0.83321367 6:-1.0532334 7:-1.7484489 8:-1.7101986 9:-0.30253517 10:0.22172998 11:-0.70066643 12:-0.94079267 13:0.64526159 14:0.30919429 15:-1.0991443 16:2.372859 17:-1.1775727 18:1.5317838 19:-0.65040706 20:-0.16155982 21:-0.33711574 22:-0.34613081 23:0.0173798 24:-1.8843251 25:-1.258378 26:-1.7824015 27:-2.3629177 28:0.03918635 29:-0.63965608 30:1.8796619 31:-0.52726583 32:-0.40073274 33:-0.51173728 34:-1.4707685 35:-1.6974239 36:-1.4589121 37:0.13943536 38:0.36708201 
21.11212657236631 1:0.97422258 2:0.88057616 3:0.54252235 4:0.11832419 5:1.011097 6:-0.21904303 7:0.10034666 8:-0.25881426 9:0.87585574 10:0.22172998 11:0.087471353 12:0.81838506 13:0.51773587 14:-0.55141968 15:0.19688477 16:0.59238227 17:0.37590116 18:-1.3016398 19:0.013601225 20:-0.038889952 21:-0.0035180549 22:1.0911521 23:-0.57253536 24:-0.8430288 25:-1.2535388 26:0.64607926 27:-0.0034761594 28:0.83081901 29:-0.63535379 30:0.33303147 31:-0.16021324 32:1.2386729 33:-0.3588164 34:-0.90165042 35:-0.80919267 36:-0.9058956 37:-0.18921241 38:0.10160043 
21.11212657236631 1:0.20256302 2:0.212388 3:1.2680366 4:0.66876602 5:-0.5493225 6:-0.93930458 7:0.055679237 8:0.31294319 9:0.40226546 10:-0.68321668 11:-0.66657921 12:-0.6064324 13:-0.31229997 14:0.92376371 15:-0.058184784 16:-0.36514439 17:0.34639838 18:-1.3016398 19:-0.4720794 20:-1.1402128 21:-0.88507849 22:-0.33973151 23:-0.57253536 24:-0.8277006 25:1.3470577 26:0.13395809 27:0.27754356 28:0.52748313 29:2.1579077 30:-0.44640995 31:0.42196987 32:0.29352291 33:0.63516938 34:-0.3067085 35:-0.19909442 36:0.50049121 37:-0.53537432 38:-1.0773344 
-15.4236895441404 1:-0.06040476 2:0.49602272 3:0.36251579 4:-0.73413909 5:0.46393691 6:0.80052293 7:0.7104383 8:0.9695218 9:0.22243519 10:1.5775771 11:1.4426965 12:0.99546785 13:0.58038008 14:-0.39100297 15:1.5067014 16:-0.021441692 17:0.41761198 18:1.1276626 19:0.40277512 20:0.62136255 21:-0.92313146 22:2.1521561 23:2.3770404 24:0.17476422 25:-0.0059880312 26:-0.92304253 27:0.089822387 28:-0.31593858 29:-0.62782478 30:-0.095802681 31:-0.27997663 32:0.51463073 33:-0.60592769 34:0.35179983 35:0.20863463 36:0.4101821 37:0.10234659 38:0.82725009 
-21.11212657236631 1:1.1207948 2:1.3394908 3:0.40422463 4:0.6914434 5:1.4513019 6:0.0088145159 7:-0.25808218 8:0.11502715 9:1.4689606 10:0.22172998 11:0.07817484 12:0.57023615 13:1.3075004 14:-0.68148728 15:-0.41173679 16:1.4966592 17:0.031023852 18:0.31789512 19:0.11220593 20:-0.97965957 21:1.9422571 22:0.85181825 23:-0.26584207 24:0.55694754 25:-1.258378 26:-0.23730246 27:0.054975942 28:1.3487095 29:-0.64395837 30:1.4517703 31:0.24454263 32:1.3715668 33:-0.065163965 34:0.066744186 35:0.041156681 36:0.65066816 37:-0.15418412 38:0.31005264 
21.11212657236631 1:0.34913523 2:0.63093512 3:0.1539716 4:-0.52385794 5:-0.31064361 6:1.287134 7:0.53067916 8:0.37158498 9:0.53518349 10:0.22172998 11:-0.48787956 12:0.83935539 13:-0.58077517 14:-1.397943 15:-0.72294135 16:-1.3294483 17:0.56614321 18:0.31789512 19:-0.17311833 20:0.26598074 21:0.67636165 22:0.9401286 23:-0.14692018 24:0.19826747 25:0.95895229 26:0.77929628 27:0.796868 28:0.69024873 29:-0.62997593 30:-0.9779758 31:1.5674844 32:0.76896201 33:0.76260345 34:-0.2749253 35:-0.295793 36:0.16868133 37:-0.64354992 38:-0.17764686 
-14.07313038617568 1:-0.59603996 2:-1.3375111 3:-1.9940335 4:-2.3339251 5:0.71725176 6:0.4683916 7:-2.0916254 8:-1.8787937 9:-1.5825693 10:-2.0390638 11:-0.98885836 12:-0.66468332 13:0.74929573 14:0.91292475 15:-0.41567609 16:2.208269 17:-1.6485998 18:-0.49187234 19:-0.87803708 20:0.34625734 21:-2.3488493 22:0.24516456 23:0.0173798 24:-1.9497254 25:1.5357872 26:-1.4908528 27:0.67209524 28:-1.6254618 29:-0.64073165 30:2.5356368 31:-0.071499627 32:-0.85096784 33:-2.1949752 34:-0.63546606 35:0.16676514 36:-3.5583452 37:-0.43338018 38:1.7230046 
-21.11212657236631 1:0.69293327 2:0.35261191 3:1.3668207 4:-0.083710637 5:0.02035446 6:-1.0918533 7:0.53503695 8:0.39567 9:0.61337056 10:0.22172998 11:0.3581032 12:-0.88254175 13:0.15081976 14:0.93135099 15:0.045221792 16:0.49556461 17:0.63939149 18:0.31789512 19:0.30626839 20:-0.55662894 21:-1.4368465 22:-0.32053361 23:-0.26584207 24:0.57534139 25:-1.2545066 26:-0.41419719 27:-1.4198155 28:0.84191667 29:-0.62997593 30:-0.28995617 31:0.98197458 32:0.24426055 33:0.30384079 34:0.29419276 35:0.26545751 36:0.65066816 37:0.45056899 38:-1.2956193 
21.11212657236631 1:0.33835786 2:0.043481932 3:-0.16762549 4:-0.41974816 5:-0.1946817 6:0.57652738 7:0.2071127 8:0.17681046 9:0.14536507 10:0.22172998 11:-0.13874382 12:-0.093824318 13:0.25820984 14:-0.40292583 15:-0.11038048 16:-0.031123458 17:0.20702318 18:-0.49187234 19:-0.18151022 20:-0.0019085963 21:0.17406246 22:0.028868202 23:-0.26584207 24:0.19111431 25:0.26887962 26:0.043326838 27:0.84745155 28:0.14646367 29:-0.62459806 30:0.05028368 31:0.081531362 32:-0.059333096 33:0.47227539 34:-0.2749253 35:-0.295793 36:0.16868133 37:-0.32932556 38:-0.41658029 
21.11212657236631 1:-0.17680034 2:0.039232723 3:0.070553928 4:1.3727956 5:-0.26335817 6:-1.0030275 7:-1.3192059 8:-2.0075962 9:-1.0352598 10:-2.0390638 11:0.17630471 12:-0.20916114 13:0.19892156 14:1.3356445 15:-0.30537574 16:-0.33609909 17:-1.0178508 18:-2.1114073 19:2.7577492 20:0.33453155 21:0.10810399 22:1.5877378 23:-0.57253536 24:-0.47617369 25:0.78570824 26:-0.17396978 27:-0.20018996 28:-1.0224892 29:1.2329154 30:-0.30409356 31:-0.68695035 32:-0.66881165 33:-0.60371144 34:3.1417695 35:2.6201177 36:-1.8201485 37:0.24348999 38:0.0072069792 
21.11212657236631 1:-1.7621512 2:-1.6455788 3:-1.9402511 4:-0.73413909 5:-1.0052892 6:1.1481022 7:0.43262871 8:1.0522486 9:-2.0204169 10:0.22172998 11:-1.3338623 12:0.88129605 13:-1.5484045 14:1.4266918 15:1.7499531 16:-0.944114 17:-0.63329733 18:0.31789512 19:0.11640188 20:0.65203002 21:-2.608878 22:-1.3892168 23:0.89051683 24:0.19213619 25:0.81861493 26:-1.3543599 27:-0.15297865 28:-1.6180633 29:-0.63320264 30:-0.93462114 31:-0.019380377 32:-1.6151073 33:0.3636794 34:0.066744186 35:0.041156681 36:0.16868133 37:-0.9278972 38:0.67484399 
21.11212657236631 1:0.33835786 2:-0.14773249 3:1.913426 4:0.70690525 5:-0.86118122 6:-2.0264554 7:1.3237983 8:0.88155912 9:0.23472173 10:0.67367901 11:0.84978549 12:-1.9531936 13:-0.7564027 14:0.8294647 15:0.2343081 16:-0.92765499 17:1.1724762 18:0.72201636 19:0.20032078 20:-0.81820439 21:-1.1438387 22:0.080062606 23:-0.26584207 24:0.56410071 25:0.38211736 26:0.064073751 27:-0.58350086 28:-0.045895666 29:1.2350666 30:-1.0156755 31:0.10149193 32:0.12855127 33:-0.080677679 34:0.18096509 35:0.041156681 36:0.65066816 37:0.84000114 38:-2.0517502 
-21.11212657236631 1:0.2780046 2:0.13908914 3:0.21214445 4:-0.87123415 5:0.3299615 6:-1.238609 7:0.98280064 8:1.2124664 9:0.0057452958 10:0.67367901 11:-0.76470908 12:-1.723685 13:-0.031519652 14:0.97145517 15:1.1905727 16:-1.0448044 17:0.60581936 18:-0.49187234 19:-1.0437769 20:1.7750005 21:0.82476822 22:-0.041524104 23:1.1972101 24:0.087904372 25:0.26694394 26:0.94745547 27:-0.6554419 28:0.25744021 29:-0.64288279 30:-1.0420653 31:-0.80449589 32:0.28894037 33:-0.70787495 34:0.7401509 35:0.3462058 36:0.047930951 37:-0.62397528 38:-0.18157992 
21.11212657236631 1:0.53989465 2:0.49071121 3:0.21653486 4:-2.6740858 5:-0.12375354 6:0.20191413 7:1.104819 8:0.88365347 9:0.42460463 10:0.4471802 11:0.35087258 12:-0.34779832 13:-0.24853711 14:1.1329558 15:1.4013252 16:-0.40677598 17:0.87032703 18:-1.3016398 19:1.3667935 20:1.571152 21:-1.2491186 22:-0.060722006 23:1.1972101 24:0.55490378 25:-0.043733942 26:0.32723196 27:0.18536909 28:0.26853787 29:1.0371613 30:-0.69051554 31:0.14030413 32:0.4000671 33:0.2994083 34:1.6608707 35:1.2743128 36:0.65066816 37:0.3496051 38:0.17141225 
21.11212657236631 1:1.0378091 2:0.66492879 3:2.348076 4:1.2903324 5:0.31870306 6:-1.7908739 7:0.58733052 8:0.26163162 9:1.1014813 10:-0.68321668 11:0.6659211 12:-2.039405 13:0.49200699 14:1.0494957 15:0.037343196 16:0.50911909 17:1.0697251 18:-1.3016398 19:0.97237465 20:-0.63419959 21:0.0015556742 22:-0.35892941 23:-1.4456724 24:0.19826747 25:0.11112108 26:0.41021961 27:-0.046191156 28:1.0897643 29:-0.63642936 30:-0.063757931 31:0.66371447 32:0.67616546 33:-0.527251 34:1.0917526 35:0.85362411 36:0.16868133 37:0.44129679 38:-1.6623772 
-21.11212657236631 1:0.68431138 2:0.40041551 3:-1.3080329 4:0.42240722 5:0.77354395 6:-0.41214264 7:0.58950942 8:1.0061729 9:0.57316007 10:0.22172998 11:-1.0931859 12:-1.5023315 13:1.0434998 14:1.25652 15:1.0221677 16:0.55365521 17:-0.73401371 18:1.1276626 19:0.48774301 20:0.72869868 21:-1.3290298 22:-2.448941 23:0.89051683 24:0.18804867 25:0.1469313 26:-1.0016624 27:-1.1713941 28:0.33512379 29:-0.64180722 30:-0.14858227 31:0.79234922 32:-1.0365609 33:0.88228067 34:0.23757893 35:0.54558431 36:0.16868133 37:-1.7737274 38:-0.76367287 
-21.11212657236631 1:0.52157312 2:0.15077447 3:1.506216 4:0.41828406 5:-0.14852211 6:-0.60717325 7:0.85533506 8:0.69411482 9:0.35200234 10:-0.23126765 11:0.5894831 12:-0.79749541 13:0.90590626 14:0.80778677 15:0.79073397 16:1.1248794 17:1.4461399 18:-0.49187234 19:0.97761958 20:-0.60172815 21:0.51019702 22:-1.6490284 23:0.89051683 24:1.1680321 25:-0.42603226 26:0.2617154 27:-0.091154311 28:0.42390503 29:0.47248576 30:0.44895807 31:0.37539522 32:0.91216656 33:0.11545998 34:1.0917526 35:0.26545751 36:1.4949061 37:0.79364017 38:-1.6712266 
-18.67375011054843 1:-0.54430859 2:-0.87859648 3:0.17043562 4:0.44302302 5:-0.30388855 6:-0.27697291 7:-0.5544124 8:-0.34572977 9:-0.56725427 10:-1.1351657 11:0.87354324 12:-0.83827105 13:-0.59196164 14:1.6358838 15:0.93057905 16:-0.17925448 17:0.21821389 18:0.72201636 19:0.48879199 20:-0.63059165 21:0.43282265 22:-0.90286996 23:0.0173798 24:0.068488642 25:0.79441884 26:0.023671868 27:0.11455212 28:-0.13837612 29:0.64350177 30:-0.25037148 31:-0.055974744 32:-0.011216367 33:-0.76217294 34:-2.491804 35:-3.449961 36:-4.1712295 37:1.5601415 38:-0.33496928 
21.11212657236631 1:-1.636056 2:-2.2011629 3:-2.4747827 4:-1.8793467 5:-0.069713043 6:1.1925151 7:-2.2038387 8:-2.1866631 9:-3.0681237 10:-0.23126765 11:-0.051976354 12:0.68324293 13:0.44726112 14:-1.3936074 15:-0.7771067 16:0.19349351 17:-2.5652206 18:-2.1114073 19:-1.6102295 20:0.33633552 21:-1.8440133 22:1.1154694 23:-0.57253536 24:-3.6664848 25:1.623861 26:-1.2342462 27:0.96435575 28:-2.6834381 29:-0.63212707 30:0.4329357 31:0.8245079 32:-2.5911895 33:1.700075 34:-2.0974936 35:-3.5476565 36:-5.3767039 37:0.071439273 38:2.1290931 
21.11212657236631 1:0.76083069 2:1.0059278 3:-0.096281421 4:0.76978343 5:1.2565309 6:0.33129087 7:-0.14477944 8:-0.03053015 9:0.72283247 10:0.67367901 11:0.20006247 12:1.2226464 13:1.1095 14:-0.068001757 15:-0.42650916 16:0.28740664 17:0.68822367 18:0.31789512 19:0.60313149 20:-2.0710606 21:0.64084554 22:0.099260508 23:0.0173798 24:0.73373288 25:0.79345099 26:0.10884341 27:1.0441653 28:1.2340338 29:-0.6385805 30:0.10871822 31:-0.28108555 32:0.94882692 33:0.40467992 34:0.63586225 35:1.0500119 36:0.89216892 37:0.36196802 38:0.42411139 
-21.11212657236631 1:-0.30936196 2:-0.56203039 3:-1.1807112 4:-0.4053171 5:1.8554798 6:0.27142999 7:-0.98583435 8:-0.62218392 9:-0.045634782 10:-0.23126765 11:0.60601024 12:1.0245933 13:1.3220428 14:0.17153941 15:-0.86869538 16:1.0822796 17:0.0045730856 18:0.31789512 19:0.60313149 20:-1.8130931 21:1.6327596 22:-0.059442145 23:0.32407309 24:0.7429298 25:-1.258378 26:0.22022157 27:1.6972552 28:-0.49350105 29:-0.63320264 30:1.4951249 31:-0.31324423 32:0.60055346 33:1.5227754 34:0.63586225 35:1.0500119 36:0.89216892 37:1.3911816 38:1.5981299 
-21.11212657236631 1:0.66814533 2:0.59906605 3:0.39763902 4:-0.23008281 5:0.21850297 6:0.85652182 7:0.34329387 8:0.13073477 9:0.64241148 10:0.22172998 11:0.69587654 12:0.80556986 13:-0.22392688 14:-0.50806381 15:0.4470302 16:-0.59363407 17:0.26602874 18:1.5317838 19:0.015699198 20:0.36700298 21:0.36686417 22:0.32451589 23:0.0173798 24:-0.40362017 25:0.92894913 26:0.69412474 27:0.97784469 28:0.68285029 29:0.40364913 30:-0.53877423 31:0.24454263 32:0.44818382 33:0.91441622 34:0.071710312 35:-0.40744497 36:-0.55480625 37:0.72255335 38:-0.37135009 
21.11212657236631 1:1.0388868 2:0.81365112 3:1.5424368 4:1.5387527 5:0.5663887 6:-1.3583307 7:0.99478458 8:1.0271164 9:1.0545691 10:0.67367901 11:-0.24513725 12:-0.99088846 13:0.59156655 14:-1.2169322 15:-0.82634792 16:0.32516553 17:0.951714 18:-0.49187234 19:-0.62628038 20:-0.62968967 21:1.1139708 22:1.0770736 23:-0.26584207 24:-0.47515181 25:-1.2525709 26:0.13068226 27:-0.94770241 28:1.1119596 29:1.0532948 30:0.51210508 31:1.1893427 32:0.66241783 33:0.60303383 34:2.4445254 35:1.5963091 36:-0.55480625 37:-0.59203773 38:-0.95442631 
21.11212657236631 1:-3.3895338 2:-4.0633788 3:-1.8601262 4:-2.3937109 5:-2.8674349 6:1.0206565 7:-0.34305923 8:0.36530193 9:-3.0725915 10:0.67367901 11:0.1267233 12:0.56790611 13:-2.9578994 14:-1.019663 15:0.49528661 16:0.30967471 17:-0.95681055 18:0.31789512 19:-0.28116391 20:1.2599674 21:-2.6431256 22:0.69823504 23:2.0703472 24:0.55081626 25:-0.14729323 26:0.020396039 27:0.55406696 28:-3.4602739 29:-0.63212707 30:0.37638614 31:1.0817774 32:-1.6357288 33:1.2922859 34:-0.52223838 35:0.6014103 36:0.65066816 37:0.99865868 38:2.6453073 
-21.11212657236631 1:0.84166095 2:1.2895626 3:0.56337677 4:1.6428625 5:1.2565309 6:-0.016288434 7:1.017663 8:0.94962548 9:1.2265806 10:0.67367901 11:1.814557 12:0.28480665 13:0.85556716 14:-0.8061354 15:-0.54173363 16:0.17703451 17:0.93441927 18:1.0605632 19:0.027238046 20:-1.1068394 21:0.09415123 22:0.91581126 23:-0.57253536 24:-0.81850367 25:-1.2564423 26:-0.49500096 27:0.14939857 28:1.1082604 29:2.1493031 30:0.48288781 31:-0.27997663 32:1.4792566 33:-0.66909066 34:-0.047476717 35:0.1996626 36:-0.49392371 37:1.8712752 38:0.53030402 
21.11212657236631 1:0.88477043 2:0.90925832 3:0.46678788 4:0.95532562 5:1.0865285 6:0.15943221 7:0.67448647 8:0.83443625 9:1.0981304 10:-0.23126765 11:0.37566328 12:-0.048388602 13:1.0893643 14:0.70481658 15:1.3353419 16:0.93608497 17:0.94255797 18:0.72201636 19:0.50557577 20:-0.18861935 21:0.47848621 22:-1.2253947 23:0.89051683 24:0.17885174 25:-1.2496674 26:-0.27442851 27:-0.98367293 28:1.0601705 29:0.09173314 30:0.15207289 31:-0.26666958 32:1.4689458 33:0.77257655 34:0.52263457 35:-0.295793 36:0.16868133 37:0.65455726 38:0.16944572 
-21.11212657236631 1:1.3848403 2:1.4701539 3:0.63252563 4:0.60691862 5:1.7699157 6:-0.039460387 7:-1.1503412 8:-0.49023989 9:1.4119957 10:-1.1351657 11:0.62666915 12:0.27432148 13:0.84885528 14:1.162221 15:1.6908636 16:2.3089594 17:0.086977397 18:-0.62607109 19:0.49403692 20:-1.5109283 21:0.85394216 22:-0.33845165 23:0.89051683 24:1.1700759 25:-1.2545066 26:-0.41419719 27:1.5263952 28:1.7889165 29:1.0672773 30:1.7957801 31:0.6870018 32:1.499878 33:1.2424204 34:0.28525374 35:-0.48221191 36:1.4949061 37:0.40832899 38:-0.29170562 
21.11212657236631 1:-1.8246599 2:-2.1894775 3:-2.1740401 4:-0.70940013 5:-1.165159 6:-0.07808031 7:-3.0427147 8:-1.7583686 9:-1.8227153 10:-2.6608869 11:-2.6178142 12:0.89644129 13:-0.55952088 14:-0.117861 15:1.098984 16:1.2439651 17:-3.1227214 18:-1.3016398 19:0.40487309 20:-1.0887997 21:-1.6068165 22:0.14789519 23:0.32407309 24:1.1905135 25:-1.0802947 26:-0.69591843 27:-0.029329973 28:-2.4984772 29:-0.63965608 30:0.68175376 31:-0.40639353 32:-3.405737 33:0.31381389 34:0.40841367 35:1.3859647 36:1.4949061 37:-2.7050677 38:1.1035476 
-2.241168304882785 1:0.51726217 2:-0.22528056 3:-0.15884468 4:0.24304977 5:-0.069713043 6:-0.79061788 7:0.91961258 8:0.98941812 9:-0.15062885 10:0.22172998 11:0.81363238 12:-1.4941764 13:0.29736247 14:1.3876715 15:1.0359553 16:0.68145452 17:0.14394828 18:0.72201636 19:-1.8221247 20:0.77830782 21:-0.077087127 22:-2.1955287 23:0.89051683 24:0.18191738 25:-1.1286869 26:-1.2659126 27:-0.49132639 28:-0.65626664 29:-0.64503394 30:0.091753356 31:-1.3833522 32:-0.28731474 33:-2.411059 34:0.52263457 35:0.82571112 36:0.16868133 37:0.93066259 38:-1.9789886 
-21.11212657236631 1:0.19286339 2:-0.023443114 3:-0.48153937 4:-0.77227832 5:0.7386428 6:-0.21518104 7:0.73876398 8:0.71610549 9:-0.35056437 10:1.125628 11:0.56675829 12:-0.42585455 13:0.67658369 14:0.72757841 15:1.5638212 16:0.3348473 17:0.31282625 18:-0.49187234 19:0.50452679 20:1.7271953 21:0.74866229 22:0.29763882 23:1.1972101 24:0.55592566 25:-0.57701591 26:-0.011270301 27:-0.66331046 28:-0.38622373 29:-0.64288279 30:0.077615967 31:-0.4651663 32:0.32560073 33:-0.59373834 34:0.46502751 35:0.19069056 36:0.65066816 37:0.93169284 38:0.37789793 
-21.11212657236631 1:1.0259539 2:1.319307 3:-0.56715224 4:-0.26100651 5:1.2587826 6:0.25598202 7:-1.2636439 8:-1.317508 9:0.70496114 10:0.22172998 11:0.62563621 12:1.002458 13:1.5099755 14:-0.11677711 15:-0.86278643 16:1.3010875 17:-0.53359828 18:0.35144481 19:0.014650212 20:-0.74333969 21:-0.11006637 22:0.27332148 23:0.0173798 24:0.18293926 25:-1.258378 26:-0.98965104 27:-1.2163573 28:0.60146749 29:-0.64073165 30:1.3546935 31:-0.57716724 32:0.83999147 33:-0.56935965 34:-2.3259354 35:-0.40744497 36:-0.49392371 37:0.099255855 38:0.68762644 
21.11212657236631 1:-0.18542223 2:0.24850628 3:-0.46507535 4:-0.6310601 5:0.21850297 6:1.254307 7:0.39885578 8:0.15691414 9:0.46593208 10:-3.1694606 11:0.62357032 12:1.2995376 13:0.099362009 14:0.073988709 15:0.13484083 16:-0.62655207 17:0.054422607 18:0.72201636 19:-3.8057577 20:-0.20124713 21:0.65226143 22:0.42434498 23:0.0173798 24:-5.8144777 25:0.93185267 26:0.19619883 27:1.8400132 28:-0.034798011 29:-0.63427822 30:-0.16366215 31:-5.0438979 32:0.67043728 33:-4.5087347 34:0.40841367 35:0.15280865 36:0.16868133 37:-0.14697241 38:1.3650961 
-8.1087716699796 1:0.060301763 2:0.31543133 3:0.7093577 4:1.4222735 5:-0.56170678 6:-1.0513024 7:0.85206672 8:0.22498051 9:0.02808446 10:0.22172998 11:-0.19658879 12:-0.37459374 13:-0.31229997 14:1.2576039 15:0.17324898 16:-0.6914199 17:0.62514877 18:-0.49187234 19:0.012552239 20:-0.00010462768 21:0.018045294 22:-0.4459599 23:-0.57253536 24:-0.35252614 25:0.11015323 26:0.47573618 27:0.52596499 28:0.3980105 29:1.2296887 30:-0.9006914 31:-0.51174095 32:0.33820273 33:-0.32003211 34:-0.047476717 35:0.26545751 36:-0.55480625 37:-0.085157783 38:-0.15994809 
21.11212657236631 1:0.29632613 2:0.45459293 3:0.20885165 4:-1.5525863 5:0.7825507 6:-0.30014487 7:0.2910003 8:0.4208022 9:0.19451123 10:0.67367901 11:0.094701975 12:0.12053906 13:0.82088911 14:-0.49830874 15:-0.62839819 16:0.53429168 17:-0.11242069 18:-0.49187234 19:0.21605557 20:-1.2845303 21:-1.0690012 22:0.4397033 23:-0.57253536 24:0.56410071 25:-1.2545066 26:-0.55833364 27:0.44390723 28:0.43130346 29:-0.6385805 30:0.50645012 31:-0.39308649 32:0.47682473 33:0.57976326 34:0.18096509 35:-0.071492177 36:0.65066816 37:0.13016317 38:-0.059655049 
21.11212657236631 1:0.70802159 2:0.40997623 3:1.2076685 4:0.31726665 5:0.28155022 6:-1.9434226 7:0.90653918 8:0.64489761 9:0.68038806 10:0.22172998 11:0.13911865 12:-1.3625293 13:0.098243362 14:0.47394659 15:-0.1350011 16:-0.86569169 17:0.63735681 18:-0.49187234 19:0.031433991 20:-0.010026455 21:0.2932951 22:-0.028725503 23:-0.82759152 24:0.19928935 25:0.71118427 26:0.10556758 27:0.69120458 28:0.88260807 29:1.062975 30:-0.79041976 31:-0.40750245 32:0.58680583 33:-0.63584699 34:-0.10409055 35:0.2933705 36:0.16868133 37:-0.26235971 38:-1.3850964 
13.99491512402688 1:-0.66824832 2:-1.2928944 3:-0.30482561 4:-1.293858 5:-0.28812674 6:0.18067317 7:0.01645906 8:0.68154873 9:-0.61863435 10:-0.23126765 11:-2.4824982 12:-0.15440527 13:-0.91077594 14:0.60726588 15:1.3491295 16:-1.7573823 17:-0.00051360028 18:-1.3016398 19:0.7699203 20:-0.58008053 21:-0.47030113 22:-1.3495411 23:2.0703472 24:-1.1260897 25:1.1738136 26:2.4608882 27:-0.63633256 28:0.053983222 29:0.63597276 30:-0.91200132 31:0.36541494 32:-0.60351038 33:1.8884558 34:-0.047476717 35:-0.85604662 36:-4.7739667 37:-2.6195575 38:0.22844163 
21.11212657236631 1:-0.43869038 2:-0.051062975 3:0.80923939 4:-1.0866692 5:-1.4072155 6:-1.4703285 7:0.66794977 8:-0.43369245 9:0.1900434 10:0.22172998 11:0.086438407 12:-0.54352141 13:-1.1389799 14:0.24416049 15:-0.089699169 16:-1.3197665 17:0.5824206 18:-2.1114073 19:1.4486144 20:-0.12097052 21:-0.55782296 22:0.33859435 23:-0.87922865 24:-0.47515181 25:1.0673508 26:1.8439405 27:-0.054059709 28:-0.038497229 29:-0.63642936 30:-1.4275448 31:0.70585344 32:-0.11432364 33:0.72381917 34:1.6608707 35:0.82571112 36:-1.5441476 37:-0.026433887 38:-1.0547193 
-21.11212657236631 1:0.42996549 2:0.92944207 3:0.7115529 4:-0.49911898 5:-0.2768683 6:0.84107385 7:0.39558744 8:0.26477315 9:0.83117742 10:-0.23126765 11:0.16597525 12:0.56208102 13:-0.55057171 14:1.5437526 15:1.9794172 16:-0.92571864 17:0.75231591 18:0.31789512 19:0.024091088 20:-1.2755104 21:0.081466908 22:-1.9318775 23:1.1972101 24:1.1966448 25:1.2018811 26:0.41349544 27:0.79799207 28:1.152651 29:-0.63965608 30:-0.90917384 31:-0.29217475 32:0.79989419 33:0.39692307 34:-0.047476717 35:0.15280865 36:1.4949061 37:0.15591926 38:-0.53260557 
4.409668594384595 1:-0.36971523 2:-0.24227739 3:0.65777045 4:-0.68878433 5:-0.76098113 6:-0.53572639 7:0.89128689 8:0.92030458 9:0.30285618 10:0.22172998 11:-0.065404652 12:0.75314403 13:-0.48009697 14:-0.60127893 15:-0.97899573 16:-1.4911338 17:0.56003919 18:0.72201636 19:0.40067715 20:1.4096968 21:-0.8305359 22:-0.96174352 23:-0.26584207 24:-0.36478871 25:1.654832 26:1.4661283 27:-0.25526983 28:0.020690259 29:0.61768803 30:-1.7216025 31:0.60826846 32:-0.036420368 33:0.42019364 34:0.40841367 35:-0.40744497 36:-1.1575435 37:-0.24175484 38:-1.5493017 
21.11212657236631 1:0.8136398 2:0.51726877 3:1.6093905 4:0.8450311 5:-0.16540976 6:1.1789982 7:1.0525254 8:1.0333995 9:0.98866852 10:0.22172998 11:0.4231788 12:0.88595612 13:-0.42416463 14:1.0191466 15:-0.61953477 16:-1.1406538 17:1.1958749 18:1.1276626 19:0.021993115 20:0.480653 21:1.7380395 22:-0.30389543 23:0.0173798 24:-0.38522632 25:1.2076882 26:0.91578912 27:0.18874133 28:0.63845967 29:0.5994033 30:-1.2192539 31:0.73579429 32:0.34393091 33:-0.42751998 34:-0.047476717 35:0.26545751 36:-0.55480625 37:0.45056899 38:-1.7528376 
-21.11212657236631 1:0.48169686 2:0.36854644 3:0.61386641 4:-0.60941351 5:-0.18567495 6:0.70204213 7:1.2192111 8:1.0878526 9:0.50614258 10:1.125628 11:1.1751635 12:0.40014347 13:-0.081858752 14:-0.58935606 15:-0.90513389 16:-0.57330236 17:0.91203785 18:0.31789512 19:0.20661469 20:0.9000757 21:0.26665802 22:-0.88111233 23:-0.87922865 24:0.088926253 25:-0.57991944 26:0.93762798 27:-0.025957737 28:0.55337766 29:-0.63750493 30:-0.44735244 31:1.92123 32:0.27404709 33:0.76149533 34:0.15216156 35:-0.19710064 36:0.047930951 37:1.1439231 38:-0.29957174 
21.11212657236631 1:-2.1813908 2:-2.7822422 3:-0.69008355 4:0.42962275 5:-0.9838982 6:0.89514174 7:1.5002891 8:1.4972979 9:-2.1399314 10:1.125628 11:1.8744679 12:0.50499512 13:-1.2597937 14:0.1747911 15:1.0369401 16:-0.094054938 17:0.76961064 18:1.1276626 19:1.0783223 20:0.82430902 21:-0.92439989 22:0.40770679 23:0.0173798 24:0.11038574 25:-1.1306226 26:0.010568554 27:-0.051811551 28:-1.9953836 29:-0.63427822 30:-0.44452496 31:-0.45629494 32:-1.0606193 33:-0.2845722 34:1.2625874 35:1.1247789 36:0.047930951 37:2.1082312 38:1.8822936 
21.11212657236631 1:-2.2697652 2:-1.020945 3:0.86850984 4:-0.60219798 5:-2.9710125 6:0.70590412 7:0.86514011 8:0.34959431 9:0.16100249 10:-0.23126765 11:0.46449664 12:0.53994567 13:-2.4086438 14:0.65170564 15:-0.24234697 16:-1.5753651 17:0.74010787 18:0.31789512 19:0.021993115 20:1.3817353 21:0.43282265 22:-0.69169304 23:0.32407309 24:0.18907055 25:1.654832 26:2.4870948 27:-0.3789185 28:0.49049095 29:0.19283694 30:-1.8120818 31:0.41088067 32:-0.48665547 33:0.9232812 34:-1.0724852 35:-1.0245215 36:0.16868133 37:0.43305484 38:-0.76072308 
11.38459980900412 1:-0.062560234 2:-0.22528056 3:1.4337743 4:1.4057808 5:-0.75310022 6:-0.35035076 7:0.92832817 8:0.82710603 9:-0.13722536 10:1.125628 11:0.63389978 12:-0.95710292 13:-0.45884268 14:0.079408193 15:-0.46688697 16:-0.82986916 17:0.70348373 18:0.72201636 19:0.48879199 20:1.0822765 21:-0.11387166 22:-1.826929 23:-1.7523657 24:-0.30858528 25:0.40824914 26:0.73780245 27:-0.42050942 28:-0.31223937 29:-0.62890035 30:-0.86110671 31:0.014996149 32:0.0059681785 33:-0.16489498 34:0.89211436 35:0.8556179 36:-0.43405587 37:0.55256312 38:-2.136311 
-21.11212657236631 1:0.58731506 2:0.5767577 3:-0.61434908 4:0.24717293 5:0.87486989 6:0.69818013 7:-0.88560501 8:-0.60333477 9:-0.30365213 10:0.22172998 11:-0.073668219 12:0.39548339 13:0.62177001 14:0.35255016 15:-0.35757144 16:0.21382522 17:-0.9690186 18:1.1276626 19:-0.36088686 20:-0.59451228 21:-0.18870917 22:0.7635079 23:1.1972101 24:0.18498302 25:-1.1315904 26:-1.3587277 27:2.3739507 28:0.22784647 29:-0.62567364 30:0.13416553 31:-0.4485325 32:-0.24721746 33:-0.62365764 34:-0.5033671 35:0.37710947 36:0.16868133 37:-0.1655168 38:-0.35660111 
-21.11212657236631 1:0.94296821 2:0.4875243 3:1.761957 4:-0.21668254 5:0.20611869 6:-0.8813747 7:0.34002552 8:0.31084884 9:1.0110077 10:-0.68321668 11:0.91176224 12:-0.42352451 13:-0.17694372 14:0.64737006 15:0.037343196 16:-0.49972093 17:0.83065088 18:0.31789512 19:0.0052093354 20:-0.89848099 21:1.0771862 22:0.069823725 23:-0.26584207 24:-0.76536588 25:-1.2206321 26:0.24970402 27:-0.26651061 28:0.57557297 29:2.1417741 30:-0.18910945 31:0.062679718 32:0.42297982 33:0.68171052 34:-0.047476717 35:0.17174961 36:-0.58017398 37:0.79260992 38:-1.8609967 
-21.11212657236631 1:0.032280606 2:0.4875243 3:-1.1126599 4:-0.17132778 5:1.06176 6:-0.04332238 7:-2.369435 8:-2.2693899 9:1.0389316 10:-1.1351657 11:2.0707276 12:1.2144913 13:0.91485543 14:-0.47446301 15:0.83505107 16:0.94189403 17:-0.87644091 18:0.31789512 19:1.4496634 20:-1.1546445 21:-0.26608354 22:0.56384973 23:0.0173798 24:1.202776 25:0.38211736 26:-1.4209684 27:0.50348341 28:-0.92261034 29:2.3289237 30:1.2632717 31:0.5716741 32:0.75636001 33:-0.29565342 34:1.3768083 35:0.54558431 36:1.4949061 37:0.96363039 38:1.4663724 
21.11212657236631 1:1.6758292 2:1.4393472 3:-0.34214404 4:-0.070310368 5:1.4997132 6:0.67500818 7:-1.7506278 8:-1.3133193 9:1.1930719 10:0.22172998 11:1.2577991 12:0.85217059 13:0.51661722 14:-1.1714086 15:-0.33492048 16:3.0544554 17:-1.1806247 18:1.1276626 19:0.59578859 20:0.59249906 21:2.2289228 22:0.87613559 23:0.32407309 24:0.19009243 25:0.24661922 26:-0.99838658 27:0.38320697 28:0.80122527 29:-0.63750493 30:1.6336713 31:0.78236894 32:0.41954291 33:-0.24246355 34:0.58421453 35:0.32626795 36:0.16868133 37:1.2510684 38:-0.37823295 
1.394081204209354 1:-1.5800137 2:-0.019193905 3:-0.5199554 4:0.044107316 5:-1.9194744 6:1.3663048 7:0.46422274 8:0.62918998 9:-0.26009076 10:0.22172998 11:-1.2491607 12:1.003623 13:-1.0707424 14:0.82512911 15:0.69028186 16:-0.93055952 17:0.091046746 18:1.5317838 19:-0.94412321 20:-0.16155982 21:-0.67451873 22:-1.5786361 23:1.1972101 24:0.19417995 25:0.94346679 26:-0.13029207 27:0.65973037 28:-0.005204267 29:-0.63642936 30:-1.3163307 31:0.14917549 32:-0.3239751 33:0.88228067 34:-1.1867061 35:-0.295793 36:0.16868133 37:-0.53537432 38:-0.38314927 
-21.11212657236631 1:-0.14123502 2:-0.2465266 3:-0.36299846 4:0.31932823 5:-0.092229918 6:-0.23642199 7:-0.46507756 8:-0.031577325 9:-0.47231282 10:0.67367901 11:0.27030279 12:0.12985921 13:0.079226369 14:-1.187667 15:-0.97899573 16:0.34549724 17:-0.66178277 18:-0.49187234 19:1.4507124 20:-0.26799396 21:0.65226143 22:0.7187128 23:-0.26584207 24:-0.35150426 25:0.79441884 26:-1.0409723 27:-1.326517 28:-0.18276673 29:1.2253864 30:-0.014748313 31:0.9176572 32:-0.19222692 33:-0.15159751 34:-0.52223838 35:-0.50613733 36:-1.4081766 37:0.5803797 38:0.5421032 
-2.992132114807713 1:-0.22098755 2:-0.22421825 3:-0.73398759 4:-0.03320193 5:1.3049422 6:-0.35614375 7:-0.94988252 8:-0.49023989 9:-0.28354688 10:-0.23126765 11:-0.28335625 12:0.51781032 13:1.5357043 14:1.3833359 15:0.93845765 16:2.838552 17:0.055439945 18:-0.49187234 19:0.3891383 20:-2.0016078 21:-1.2440448 22:-0.57138619 23:0.0173798 24:1.1976666 25:-1.2574101 26:-0.61074689 27:1.4072428 28:-0.20866126 29:-0.63427822 30:2.9522185 31:-0.72908931 32:0.4252711 33:0.0024314998 34:0.40841367 35:1.3859647 36:1.4949061 37:0.27130657 38:1.2431712 
-21.11212657236631 1:0.076467815 2:0.21663721 3:-0.4025121 4:-1.8628541 5:0.6204292 6:0.67307718 7:0.24306453 8:0.016592717 9:0.17999078 10:0.22172998 11:-1.6230872 12:0.46654951 13:0.3029557 14:0.38506706 15:0.090523721 16:-0.26251767 17:-0.084952586 18:0.31789512 19:0.3964812 20:-0.33023088 21:1.5515799 22:-0.027445643 23:-0.26584207 24:0.19315807 25:0.79635453 26:0.97147821 27:2.1693683 28:-0.023700357 29:-0.63535379 30:-0.055275497 31:-0.091460191 32:0.63606819 33:0.215191 34:0.40841367 35:0.15280865 36:0.16868133 37:-2.1198893 38:0.71319133 
-1.072663169836007 1:0.73712048 2:0.63624663 3:0.59191439 4:-2.7926266 5:0.41102225 6:-2.0264554 7:1.1331446 8:1.0522486 9:0.67033543 10:0.67367901 11:1.3404348 12:-3.2568492 13:-0.097519806 14:1.3735808 15:1.7657103 16:-0.83858275 17:0.95273134 18:-0.49187234 19:0.78460611 20:1.5657401 21:0.29963726 22:-0.37044815 23:1.7871253 24:0.088926253 25:0.13047795 26:0.89067444 27:-0.76897387 28:0.67545186 29:-0.62029577 30:-0.86958915 31:0.40311822 32:0.6647091 33:0.3293276 34:0.80669699 35:0.54558431 36:0.047930951 37:1.4828733 38:-0.80693654 
-21.11212657236631 1:1.3212538 2:0.93369128 3:0.81033699 4:-0.069279578 5:0.83996874 6:-0.27117992 7:0.18423426 8:0.21450876 9:1.2198789 10:0.22172998 11:-0.16043568 12:0.35354273 13:0.73810926 14:1.0961033 15:1.7538924 16:0.96513027 17:0.80725212 18:1.5317838 19:-0.66089693 20:-0.54851108 21:0.35291142 22:-1.5824757 23:1.1972101 24:0.1808955 25:-1.1315904 26:-0.55505781 27:0.2595583 28:1.2192369 29:-0.62997593 30:0.80333531 31:-0.8821203 32:0.32445509 33:-0.76882168 34:-1.4707685 35:-0.46426784 36:0.16868133 37:-0.063522663 38:-0.73220839 
-21.11212657236631 1:-0.36217107 2:-0.59602407 3:0.28239092 4:-0.13215776 5:-0.81389579 6:0.73486906 7:0.85860341 8:1.0522486 9:-0.2321668 10:0.89912922 11:-1.0652964 12:0.21257551 13:-0.72731788 14:-0.26743875 15:-0.5525667 16:-1.7748095 17:0.31486093 18:0.31789512 19:-0.08815044 20:0.56092961 21:1.2040295 22:-1.2433127 23:-1.4456724 24:-0.35354802 25:1.3770608 26:3.1302491 27:0.39107552 28:-0.005204267 29:-0.62029577 30:-1.6961552 31:0.22569099 32:-0.40989783 33:-0.62033328 34:-0.16169762 35:-0.49218083 36:-0.81964533 37:-1.2792103 38:-0.95049325 
-21.11212657236631 1:-0.30397328 2:-0.48235772 3:-0.16872309 4:1.2748705 5:0.022606148 6:-0.51448544 7:0.014280161 8:0.38624543 9:-0.28689776 10:-0.23126765 11:0.36016909 12:-0.16139538 13:-0.34138478 14:-0.043072133 15:-0.21575671 16:-0.12600477 17:0.12563621 18:0.31789512 19:0.3052194 20:-1.5704593 21:0.35164298 22:0.25412358 23:-0.57253536 24:0.56818823 25:-1.2545066 26:-0.22092332 27:-0.23166417 28:-0.26784875 29:-0.64073165 30:-0.10805509 31:-0.52393907 32:0.074706362 33:-0.79098412 34:0.29419276 35:0.041156681 36:0.65066816 37:0.58140995 38:0.91869374 
4.800883869178073 1:-0.11644707 2:-0.5216629 3:-1.4605994 4:0.36262141 5:-0.093355762 6:0.31004991 7:-1.1852036 8:-1.7196231 9:-1.2865754 10:0.67367901 11:0.64009745 12:0.52829549 13:0.2693963 14:-1.9940862 15:-1.3187602 16:1.5324818 17:-0.52240757 18:-1.3016398 19:-0.94727017 20:2.1944232 21:0.26792645 22:1.1461861 23:-1.7523657 24:0.2176832 25:-1.2564423 26:-0.7767222 27:-0.65993822 28:-1.6550555 29:-0.6385805 30:1.6610036 31:-0.18571841 32:-0.98271602 33:-0.56271091 34:-1.1867061 35:-0.295793 36:0.16868133 37:0.72461383 38:1.8557454 
21.11212657236631 1:-0.34708275 2:-0.26139883 3:-1.1379048 4:0.32860534 5:1.3004388 6:0.99555354 7:-0.96731371 8:-0.62008957 9:-1.0665346 10:0.22172998 11:0.43867299 12:0.77411436 13:1.4898398 14:-0.9708877 15:-0.2876489 16:0.45393302 17:-0.83269541 18:0.8241904 19:-0.36718078 20:-0.069557419 21:-0.19251446 22:1.6517308 23:1.1972101 24:0.1860049 25:-1.1315904 26:-1.2539012 27:1.6590365 28:-0.91151269 29:-0.63427822 30:0.35188133 31:0.44303935 32:-0.40989783 33:-0.44192557 34:-0.5033671 35:0.37710947 36:0.16868133 37:0.55256312 38:1.1890917 
21.11212657236631 1:-0.18649997 2:-0.16897853 3:-0.23348154 4:0.38117563 5:0.40539304 6:0.69045615 7:-0.087038629 8:0.10350823 9:0.36428888 10:-1.9635642 11:1.8517431 12:2.1197106 13:0.43383736 14:-1.0922841 15:-0.46097802 16:0.35033812 17:0.54986581 18:0.72201636 19:-3.8057577 20:-1.3440612 21:-0.74555094 22:0.9465279 23:0.32407309 24:-5.8144777 25:-1.2525709 26:-0.20782 27:0.83283852 28:-0.43801278 29:-0.64180722 30:0.78071548 31:-4.8365298 32:0.95570074 33:-4.2715965 34:0.63586225 35:1.0500119 36:0.89216892 37:1.2077982 38:1.7151385 
21.11212657236631 1:-0.14123502 2:-0.013882393 3:-1.618654 4:-0.46613371 5:0.35247838 6:-0.14373418 7:-1.5163962 8:-1.1939414 9:-1.0196223 10:0.22172998 11:0.064746542 12:0.56441106 13:0.44166789 14:1.1340397 15:1.2920097 16:1.7115944 17:-1.2355609 18:0.31789512 19:0.37969742 20:-1.414416 21:-1.5751056 22:-0.49843416 23:0.32407309 24:1.2007323 25:-1.2574101 26:-1.3478083 27:0.67771564 28:-0.16427064 29:-0.63750493 30:1.7901251 31:-0.79229777 32:-0.67912238 33:-0.54498096 34:0.40841367 35:1.3859647 36:1.4949061 37:0.53607922 38:1.0278362 
21.11212657236631 1:-0.63699396 2:-0.89453102 3:-0.9622886 4:-0.56818191 5:-0.16428392 6:0.0030215275 7:-0.24282989 8:0.13073477 9:-1.6529377 10:0.22172998 11:-0.97543006 12:-0.6635183 13:-0.27314733 14:-1.1833314 15:-2.330175 16:0.22350699 17:-1.4654791 18:-1.3016398 19:0.20241875 20:1.1336896 21:1.5579221 22:-0.14519277 23:-1.4456724 24:0.18804867 25:-1.1315904 26:-1.0311449 27:-0.73974782 28:-0.99659471 29:-0.62890035 30:0.2010825 31:-0.63261326 32:-2.006915 33:-0.75663233 34:0.18096509 35:0.26545751 36:0.16868133 37:-0.47046896 38:-0.043922807 
21.11212657236631 1:0.18531923 2:0.24425707 3:0.7060649 4:-0.01877087 5:-0.51329549 6:-2.5497554 7:0.2910003 8:-0.40123003 9:0.11855808 10:0.22172998 11:-0.14597444 12:-2.4762869 13:-0.14226567 14:1.0527474 15:0.30029135 16:-0.75531956 17:0.11953219 18:-1.3016398 19:-0.066121729 20:0.25154899 21:-1.2275552 22:-0.44340018 23:-0.57253536 24:0.57431951 25:0.2485549 26:0.39930019 27:0.13253738 28:0.32402614 29:0.3111499 30:-0.76874243 31:-0.37423485 32:0.40808655 33:0.4578698 34:-0.16169762 35:0.26545751 36:0.65066816 37:-0.043948031 38:-0.77448879 
-21.11212657236631 1:-0.18973318 2:0.0031144438 3:0.80704419 4:-0.065156418 5:-0.62700572 6:-1.9820425 7:-0.14695834 8:-0.5980989 9:-0.10259965 10:0.22172998 11:-0.84527887 12:-1.4953414 13:-0.61657186 14:0.77201818 15:-0.74756196 16:-0.97993653 17:-0.37794569 18:-1.3016398 19:0.48459605 20:-0.23552253 21:0.8907267 22:-0.69809234 23:-0.57253536 24:0.19213619 25:0.79538668 26:1.1046952 27:0.67996379 28:-0.090286282 29:0.64027505 30:-0.85356677 31:-0.037123101 32:-0.16816855 33:1.3388271 34:3.2559904 35:1.5354986 36:-1.2123378 37:-0.91038306 38:-1.3752638 
21.11212657236631 1:-1.3795546 2:-2.01526 3:-0.60117787 4:0.48116225 5:-0.27911999 6:-0.56662233 7:0.062215933 8:-0.20121964 9:-1.7735691 10:0.22172998 11:-1.8957849 12:0.16014968 13:-0.55952088 14:0.081575986 15:0.072796879 16:0.98933468 17:-0.94867185 18:-1.3016398 19:2.4976006 20:0.20735176 21:-0.67578716 22:0.36547141 23:-0.87922865 24:0.20644252 25:-1.2564423 26:0.25734762 27:-0.88812623 28:-1.7401375 29:-0.63642936 30:0.51681754 31:0.10814545 32:-2.1260611 33:0.67284554 34:2.9143209 35:2.6201177 36:0.16868133 37:-1.797423 38:1.4181924 
-13.47376054737151 1:0.98499995 2:0.63518433 3:1.2493774 4:1.3346563 5:0.39075707 6:0.84300484 7:0.34983056 8:0.16633872 9:1.1014813 10:-1.1351657 11:0.11432795 12:1.0630389 13:0.11166712 14:-0.70641691 15:0.80353669 16:-0.22766331 17:1.1246613 18:0.72201636 19:-3.8047087 20:0.50590856 21:1.3080409 22:1.3612026 23:0.32407309 24:-1.8291435 25:1.0683186 26:0.34907082 27:-1.6671129 28:1.0305768 29:0.63704834 30:-0.3116335 31:-5.0472246 32:0.38861073 33:-4.2882184 34:-1.4707685 35:-3.496815 36:0.0032837504 37:-0.24896654 38:-0.69582758 
-21.11212657236631 1:0.22196229 2:0.27825075 3:-0.24555515 4:-0.50942688 5:0.13744221 6:0.14591524 7:-0.35286427 8:-0.19284225 9:0.041487959 10:0.22172998 11:-1.0456704 12:-0.50857086 13:-0.25189305 14:1.507984 15:1.048758 16:-0.73401967 17:-0.50613018 18:1.93743 19:-0.63886822 20:0.21727359 21:1.1165076 22:0.30019854 23:2.0703472 24:0.19213619 25:0.95895229 26:0.81423845 27:1.2622366 28:0.0058933872 29:-0.64073165 30:-0.37855048 31:-1.0994687 32:-1.0445804 33:-1.1821513 34:-0.84503658 35:0.15280865 36:0.16868133 37:-1.1957606 38:-0.39003213 
8.731547918748223 1:-0.30505102 2:-0.93702311 3:-1.7437805 4:-0.26822204 5:-0.028056822 6:-0.90068466 7:-3.2399051 8:-2.6599861 9:-1.1424877 10:0.22172998 11:-2.6725603 12:-1.9380484 13:0.11166712 14:0.08374378 15:-0.52302197 16:0.34743359 17:-2.9691035 18:1.1276626 19:0.39228526 20:2.9584039 21:0.84125784 22:0.37187071 23:0.0173798 24:0.13797652 25:0.54084375 26:-0.97982355 27:0.38770329 28:-1.2037509 29:-0.6310515 30:0.69966112 31:-0.8654865 32:-2.4628782 33:-1.1876919 34:1.296357 35:1.0779249 36:0.16868133 37:-2.6731302 38:-0.080303616 
21.11212657236631 1:-1.0249792 2:-1.4299314 3:-1.4046218 4:-1.9174859 5:0.44592341 6:0.55335542 7:-0.5522335 8:-0.39913569 9:-1.696499 10:0.22172998 11:-1.1799534 12:0.1671398 13:0.26268442 14:0.35580185 15:-1.5561029 16:1.3688599 17:-1.2294569 18:-0.49187234 19:0.40277512 20:0.13880095 21:0.29836883 22:-0.13623375 23:0.0173798 24:0.18498302 25:0.11402461 26:0.17981969 27:1.4488337 28:-1.4774931 29:-0.64180722 30:1.6185914 31:0.35321681 32:-1.2931835 33:0.48335661 34:0.51270232 35:0.25548858 36:0.16868133 37:-1.3678113 38:1.4437573 
-21.11212657236631 1:-0.33414991 2:-0.41012116 3:-1.2498601 4:-1.500016 5:0.66095958 6:0.77735098 7:-0.48359819 8:-1.0138273 9:-0.6867688 10:1.125628 11:-0.024086812 12:0.62382699 13:0.40922714 14:-1.6266452 15:-0.47378074 16:0.72986335 17:-0.75232578 18:0.31789512 19:0.39857918 20:0.50771253 21:0.34276396 22:0.53441294 23:0.32407309 24:0.1808955 25:0.11596029 26:0.049878495 27:0.28990843 28:-1.0372861 29:-0.6310515 30:0.8938146 31:0.44414827 32:-0.21170273 33:0.9432274 34:0.40841367 35:0.15280865 36:0.16868133 37:-0.16860753 38:1.2490708 
-21.11212657236631 1:-1.2394488 2:-1.7560582 3:-0.68569315 4:0.20284897 5:-1.1539006 6:1.2330661 7:-0.10338037 8:-0.29965408 9:0.034786209 10:0.22172998 11:2.6233537 12:1.2867224 13:-0.62663968 14:-0.60236282 15:-0.39893407 16:-0.9024824 17:0.017798469 18:0.72201636 19:-0.37662166 20:0.27680455 21:-1.1882338 22:1.5992566 23:1.1972101 24:0.19826747 25:0.95701661 26:-0.39672611 27:1.5151544 28:-1.9657898 29:-0.63642936 30:-0.97232085 31:-0.85217946 32:0.12969691 33:-1.1123396 34:-0.5033671 35:0.37710947 36:0.16868133 37:1.7661903 38:1.7043226 
21.11212657236631 1:0.17669734 2:0.20601419 3:0.57215758 4:0.62444205 5:-0.27574246 6:-0.66317214 7:0.2049338 8:-0.40856026 9:0.28163397 10:0.22172998 11:-0.10775544 12:0.21141049 13:-0.051655292 14:0.53030921 15:-0.83225687 16:-0.993491 17:0.10427213 18:-0.49187234 19:0.49508591 20:-0.16967768 21:0.50892859 22:-0.28725724 23:-0.57253536 24:-0.81645991 25:0.79441884 26:0.76291713 27:0.48887039 28:0.13906524 29:2.1568321 30:-0.88938149 31:-0.11585644 32:0.29925109 33:0.81800957 34:1.7184778 35:1.7787404 36:-1.1575435 37:-0.41792653 38:-0.19141257 
-11.00171633618368 1:-3.4973075 2:-2.5400373 3:1.1549837 4:-1.0907924 5:-4.2128182 6:1.258169 7:0.70716995 8:0.73704899 9:-0.90010782 10:-0.23126765 11:-0.23687368 12:1.3682737 13:-4.2588854 14:-1.3101474 15:1.7292718 16:-1.7302734 17:1.380013 18:-0.49187234 19:-3.8120516 20:-0.68561269 21:-1.4064042 22:0.50113658 23:1.7871253 24:-5.8052807 25:1.2018811 26:2.1573281 27:0.098815018 28:-0.064391756 29:0.62951933 30:-1.7234875 31:-0.39641325 32:-0.05475055 33:-0.5915221 34:-4.6034009 35:-2.8189281 36:-4.4725981 37:-0.45192457 38:1.3788618 
21.11212657236631 1:-0.024839445 2:-0.013882393 3:0.51617993 4:0.84296952 5:-0.45925499 6:-1.5842573 7:0.21255994 8:0.18623504 9:-0.11376923 10:0.67367901 11:0.38805863 12:-1.3357339 13:0.032243209 14:-0.10160255 15:-0.5604453 16:-0.65269284 17:0.099185443 18:0.31789512 19:0.20766368 20:-1.1889199 21:-0.3548738 22:0.20932848 23:-0.57253536 24:0.55694754 25:0.24661922 26:-0.4196569 27:-0.31372193 28:0.55337766 29:-0.64288279 30:-0.76497246 31:0.35543465 32:0.176668 33:0.49665408 34:0.37067111 35:-0.071492177 36:0.65066816 37:0.69576701 38:-0.66043004 
21.11212657236631 1:0.42242133 2:0.26444081 3:-0.92167736 4:-0.18060489 5:0.39188291 6:-0.26152494 7:0.64725024 8:0.92030458 9:0.16211945 10:0.22172998 11:-0.024086812 12:-1.1050603 13:0.46739676 14:1.0820126 15:0.96307826 16:0.23415693 17:0.15615633 18:-0.49187234 19:-0.068219701 20:0.7395225 21:-0.51976999 22:-1.7910929 23:0.32407309 24:0.19315807 25:-1.1306226 26:-1.2320623 27:-0.33732758 28:0.12426836 29:-0.62890035 30:0.23501224 31:-0.4374433 32:0.30612491 33:-0.29232905 34:-0.16169762 35:0.15280865 36:0.16868133 37:0.37536119 38:-1.0252214 
21.11212657236631 1:-0.16063428 2:-0.096741974 3:-0.033718165 4:-0.7021846 5:0.11267365 6:1.0206565 7:1.0481676 8:1.0061729 9:0.006862254 10:1.125628 11:-0.28852098 12:0.61450685 13:-0.069553639 14:-0.7096686 15:-0.6530188 16:-0.89957787 17:0.54884848 18:0.31789512 19:0.17619409 20:0.80446537 21:1.006154 22:-0.55986745 23:-0.57253536 24:0.099145058 25:0.13338148 26:2.6497943 27:0.30227329 28:-0.18276673 29:-0.63427822 30:-0.78099484 31:0.091511644 32:0.21905655 33:-0.52171039 34:0.066744186 35:-0.23996702 36:0.047930951 37:-0.33447678 38:0.4998228 
-21.11212657236631 1:0.011803606 2:-0.057436789 3:-1.4781611 4:-0.7228004 5:-0.25097389 6:0.51087351 7:0.67557592 8:1.1967587 9:-0.33716088 10:0.22172998 11:-1.0064184 12:0.15548961 13:0.24031149 14:0.96928737 15:1.7824523 16:0.34065636 17:-0.44203794 18:-0.49187234 19:0.41431397 20:1.0994142 21:-1.5548107 22:-1.094849 23:0.32407309 24:0.18191738 25:-1.1315904 26:-2.0040659 27:-0.79033137 28:-0.70435648 29:-0.6310515 30:-0.026058225 31:-0.34872968 32:-0.6607922 33:0.6063582 34:0.40841367 35:0.15280865 36:0.16868133 37:-1.624342 38:-0.12160075 
-21.11212657236631 1:-3.3205586 2:-0.77449086 3:2.1823382 4:-0.48056476 5:-3.6487704 6:0.97624358 7:1.8652546 8:1.3412689 9:1.1338731 10:0.67367901 11:-0.52299972 12:0.87547096 13:-3.6380365 14:0.35146626 15:1.1167109 16:-2.4505968 17:2.795129 18:-1.3016398 19:0.011503253 20:0.56994945 21:-0.41068482 22:0.60096567 23:1.7871253 24:0.54672874 25:1.654832 26:7.6989377 27:1.4409652 28:1.6298501 29:-0.62890035 30:-2.1165069 31:1.3501361 32:1.1516046 33:0.82022582 34:-0.0097341576 35:-0.25791108 36:0.65066816 37:-1.0896455 38:-0.15208197 
21.11212657236631 1:-0.73830122 2:-0.77874006 3:-1.5923116 4:-1.8051298 5:-0.2768683 6:1.1384473 7:-0.40842619 8:-0.33316367 9:-0.83085641 10:1.125628 11:0.050285298 12:0.99430283 13:-0.41969005 14:-2.236879 15:0.48051424 16:-0.2199179 17:-1.0443015 18:-0.49187234 19:-3.8057577 20:0.64842208 21:0.26412116 22:1.348404 23:0.32407309 24:-2.0468041 25:-0.56540178 26:0.80441096 27:-0.24852535 28:-1.458997 29:-0.64503394 30:-0.19947687 31:-5.0450068 32:-0.45343201 33:-4.2427853 34:-2.3259354 35:-2.1460256 36:0.16868133 37:-1.1545508 38:2.0809131 
21.11212657236631 1:-1.3062685 2:-1.5988375 3:-2.2772146 4:-1.9587175 5:0.29506034 6:1.2195491 7:-2.1471874 8:-2.2473992 9:-2.3208787 10:-0.23126765 11:-1.0043525 12:0.77993945 13:0.47634594 14:-3.003194 15:-0.65597328 16:0.19349351 17:-2.6323649 18:-2.1114073 19:-1.9123375 20:1.0461972 21:-0.80516725 22:2.0600062 23:-0.57253536 24:-3.6991849 25:1.6209575 26:-0.65224072 27:-0.077665365 28:-2.528071 29:-0.6310515 30:0.45932549 31:1.3900572 32:-2.3265475 33:2.125594 34:-0.4835026 35:-0.91286949 36:-5.3767039 37:-2.0261371 38:2.1005784 
12.53117572875799 1:-1.3439893 2:-1.0251942 3:-0.77240363 4:-0.74960094 5:-0.44799655 6:0.12467428 7:0.71152775 8:1.2323627 9:-1.5803354 10:1.5775771 11:-1.5053313 12:-0.37342873 13:-0.49352073 14:1.602283 15:2.2010027 16:-0.8986097 17:-0.61295058 18:0.31789512 19:0.29892548 20:1.1030222 21:0.18167306 22:0.81854189 23:1.1972101 24:0.17272046 25:0.10628186 26:-0.98419132 27:-0.65431783 28:-1.0039931 29:-0.62782478 30:-0.67543566 31:-0.021598218 32:-1.0755126 33:-0.062947721 34:0.1422293 35:0.15280865 36:0.16868133 37:-1.0731616 38:0.38576405 
21.11212657236631 1:-0.6617819 2:-1.0506895 3:-1.5999948 4:0.56362545 5:0.86361146 6:1.0612074 7:-1.1568779 8:-0.22844619 9:-1.6763938 10:0.22172998 11:-2.315161 12:1.007118 13:0.8589231 14:-1.9323041 15:-0.1871968 16:1.8965162 17:-1.3973175 18:1.1276626 19:0.40067715 20:0.54288992 21:-0.44620092 22:2.2340672 23:1.1972101 24:0.20031123 25:-1.1315904 26:-1.180741 27:0.42030157 28:-1.2888329 29:-0.63965608 30:1.9937035 31:0.42529663 32:-1.3458828 33:0.33265197 34:1.0351388 35:0.76988514 36:0.16868133 37:-1.9550503 38:1.7043226 
10.61236013671395 1:-0.25116418 2:-0.26139883 3:-0.16323508 4:0.90275534 5:-0.41196955 6:-0.36193674 7:-0.089217528 8:-0.49338142 9:-0.42875145 10:-0.68321668 11:-0.92378276 12:-0.32799301 13:-0.14785891 14:0.034968429 15:-0.84407477 16:-0.50649817 17:-0.37184167 18:-2.1114073 19:0.49823287 20:-0.45199876 21:-0.52864902 22:0.2822805 23:-1.7523657 24:-0.81237239 25:0.79538668 26:0.14378557 27:-0.91847636 28:-0.097684718 29:0.4047247 30:-0.29278364 31:0.21903747 32:-0.41333474 33:0.17197422 34:0.52263457 35:-0.295793 36:-2.4837683 37:-0.69094113 38:0.052437175 
-21.11212657236631 1:0.82980585 2:1.2130768 3:-0.54410262 4:-0.0259864 5:2.05588 6:0.10343333 7:-1.0239651 8:-0.60124042 9:0.84346396 10:-0.23126765 11:-0.52506561 12:1.070029 13:1.5357043 14:-0.40509363 15:-0.94748134 16:1.1364975 17:-0.35454694 18:0.31789512 19:0.60522946 20:-1.5677533 21:2.8187438 22:0.37699015 23:0.0173798 24:0.73986416 25:-1.258378 26:0.26280734 27:1.5421323 28:1.0268776 29:-0.63427822 30:1.5610994 31:-0.31657099 32:0.55816492 33:-0.19813865 34:0.63586225 35:1.0500119 36:0.89216892 37:-0.80529819 38:0.38478078 
-21.11212657236631 1:-2.1803131 2:-2.4253087 3:-1.635118 4:-1.770083 5:-0.84654526 6:0.28494696 7:-0.29185511 8:0.83129472 9:-2.8156912 10:0.67367901 11:-1.8338082 12:-0.31517781 13:-0.79555533 14:-0.47229522 15:0.27665556 16:0.27482035 17:-1.1165325 18:-0.052676431 19:-0.36508281 20:0.96411659 21:-1.3937198 22:0.31043743 23:1.4428777 24:0.55490378 25:0.9502417 26:-0.086614354 27:0.54844657 28:-1.9361961 29:-0.63535379 30:0.37921361 31:0.38204874 32:-1.7342535 33:0.81690145 34:-0.5033671 35:0.48975833 36:0.65066816 37:-0.38392848 38:1.8252642 
-14.38248265951219 1:-2.0984051 2:-1.375754 3:-1.1916872 4:-1.0742998 5:-1.230458 6:0.10150233 7:-0.30819685 8:-1.0368651 9:-1.0229732 10:0.22172998 11:-1.6819651 12:0.3640279 13:-0.25972357 14:-1.313399 15:-0.92778485 16:-1.7573823 17:0.44101074 18:-0.62607109 19:-1.2693089 20:-1.4622212 21:-1.2338974 22:1.000282 23:-0.26584207 24:-0.81237239 25:1.2067203 26:1.1702118 27:-0.50706349 28:-1.188954 29:-0.63535379 30:-1.8648614 31:0.95203373 32:-0.17618801 33:-0.056298986 34:-1.4707685 35:-1.1371703 36:-1.1575435 37:-1.0597684 38:1.587314 
21.11212657236631 1:0.2165736 2:0.33773968 3:-0.030425362 4:-1.3835368 5:-0.34667061 6:1.0843794 7:-0.029297813 8:0.25953727 9:0.38216021 10:0.22172998 11:0.22382022 12:0.55858596 13:-0.42192734 14:-0.90693779 15:-1.864353 16:-1.207458 17:-0.28740268 18:0.31789512 19:-0.26962506 20:0.29304027 21:-0.77091958 22:-0.29749613 23:-1.4456724 24:0.17782986 25:0.82055062 26:0.28246231 27:0.85869233 28:0.10207306 29:0.65210635 30:-0.75366255 31:-0.043776622 32:0.096473453 33:-0.64027948 34:-0.3891462 35:-0.295793 36:0.16868133 37:-0.17581924 38:-0.6643631 
-5.883634292943101 1:0.48493007 2:0.33136586 3:-0.73288999 4:-0.43521001 5:0.75890798 6:0.32935987 7:-1.4935177 8:-1.551028 9:-0.045634782 10:0.22172998 11:-0.37218961 12:1.195851 13:1.1531272 14:-1.4553895 15:-1.1267194 16:1.895548 17:-0.74520442 18:0.31789512 19:0.48774301 20:0.091897771 21:-0.51976999 22:1.0514764 23:0.0173798 24:-0.99222336 25:-1.258378 26:-1.3303372 27:-2.5405222 28:-0.43431356 29:-0.64073165 30:1.3735434 31:0.0027980269 32:-0.11203237 33:-0.11392135 34:0.52263457 35:0.26545751 36:-1.8201485 37:-0.38083775 38:0.81938397 
21.11212657236631 1:-3.1556649 2:-3.9709585 3:-2.102696 4:-0.24657545 5:-2.1142454 6:-0.12249322 7:-1.5479902 8:-1.042101 9:-3.6377724 10:-0.23126765 11:-0.20381941 12:0.4910149 13:-2.4075252 14:1.3237216 15:1.250647 16:-0.24218596 17:-1.4146123 18:0.31789512 19:0.38808931 20:-1.3972783 21:-1.7209754 22:-0.57778549 23:0.32407309 24:1.202776 25:0.24758706 26:-0.60419523 27:0.85981641 28:-3.1865318 29:-0.63642936 30:0.4706354 31:-0.67031654 32:-3.0895413 33:-0.44746619 34:2.2875958 35:2.6201177 36:1.4949061 37:0.72461383 38:2.184156 
-21.11212657236631 1:0.26183855 2:0.43334688 3:0.56666957 4:-1.6103105 5:-0.1406412 6:-1.1169562 7:0.85097727 8:1.0155975 9:0.14983291 10:0.67367901 11:0.88697154 12:-1.9683389 13:-0.070672285 14:1.6749041 15:1.4899594 16:-0.39999874 17:0.44304541 18:1.5317838 19:0.70278518 20:0.98576421 21:0.29202667 22:-0.66609584 23:2.0703472 24:0.55081626 25:-0.70961051 26:0.52159778 27:0.10443541 28:0.39431128 29:-0.64288279 30:-0.63396598 31:-0.39086865 32:0.27290146 33:-0.11392135 34:0.63586225 35:0.47081737 36:0.68110943 37:1.3499718 38:-0.70467697 
21.11212657236631 1:0.65305701 2:0.66280419 3:0.71813851 4:1.4635051 5:0.089030931 6:-2.0959713 7:0.62110345 8:-0.095454988 9:0.60108402 10:0.22172998 11:0.30748885 12:-1.6875694 13:0.64973617 14:1.1275363 15:0.10628091 16:-0.16279548 17:0.52239771 18:-0.49187234 19:-0.077660578 20:0.48426094 21:0.53429723 22:-0.36404885 23:-0.57253536 24:0.56307883 25:-0.16084305 26:0.26826705 27:0.10780765 28:0.77163152 29:1.2275376 30:-0.21361426 31:-0.40417569 32:0.7151171 33:-0.51395353 34:-0.16169762 35:0.26545751 36:0.65066816 37:0.031259765 38:-0.29957174 
3.06101886306833 1:0.89339232 2:0.72548002 3:1.8585459 4:1.1975613 5:0.36936603 6:-0.1340792 7:0.41628697 8:0.23231073 9:1.0545691 10:-0.68321668 11:-0.18419344 12:0.30461196 13:0.1038366 14:-0.60127893 15:-0.1753789 16:-0.060168756 17:1.0554824 18:-0.49187234 19:0.014650212 20:-0.66306309 21:-0.39926893 22:0.95804664 23:-1.4456724 24:0.19928935 25:0.11112108 26:0.44188596 27:-0.1181322 28:1.2784244 29:1.7190741 30:-0.21078678 31:-0.17462921 32:0.66814601 33:-0.55273781 34:0.61699097 35:0.26545751 36:0.16868133 37:0.068348542 38:-1.4421258 
